{
  "embedding_model": "Xenova/bge-m3",
  "embedding_dimension": 1024,
  "metadata": {
    "years_of_experience": {
      "minimum": 5,
      "preferred": 6,
      "flexible": true
    },
    "location": [
      "Pune",
      "Noida",
      "Hyderabad",
      "Mumbai",
      "Delhi NCR"
    ],
    "country": "India",
    "preferred_work_mode": "hybrid",
    "notice_period_days": {
      "preferred_max": 30,
      "hard_cap": null
    },
    "salary_range_lpa": {
      "min": null,
      "max": null
    },
    "visa_sponsorship": false
  },
  "semantic_axes": {
    "identity": {
      "role_family": "AI Engineer",
      "secondary_roles": [
        "Applied ML Engineer",
        "Search Engineer",
        "Ranking Engineer",
        "Information Retrieval Engineer"
      ],
      "seniority": "senior",
      "career_transition": {
        "from": "applied ML/AI roles at product companies",
        "to": "owning the intelligence layer of Redrob's product"
      }
    },
    "skills": {
      "core_production_skills": [
        "embeddings-based retrieval systems",
        "vector databases or hybrid search infrastructure",
        "Python"
      ],
      "ml_skills": [
        "modern ML systems",
        "LLMs",
        "fine-tuning"
      ],
      "ml_infra_skills": [
        "distributed systems",
        "large-scale inference optimization"
      ],
      "weak_skills": [
        "LLM fine-tuning experience",
        "learning-to-rank models",
        "HR-tech",
        "recruiting tech",
        "marketplace products"
      ],
      "noisy_non_relevant_skills": [
        "LangChain tutorials",
        "framework buzzwords",
        "computer vision",
        "speech",
        "robotics"
      ]
    },
    "experience_summary": {
      "system_types": [
        "ranking system",
        "retrieval system"
      ],
      "scale": {
        "daily_data_processed": "unknown",
        "source_systems": 0,
        "realtime_systems": true
      },
      "production_maturity": "high",
      "ml_maturity": "high"
    },
    "experience_chunks": [
      {
        "id": "chunk_1",
        "description": "5-9 years of experience with 4-5 years in applied ML/AI roles at product companies",
        "tags": [
          "ideal_signal"
        ]
      },
      {
        "id": "chunk_2",
        "description": "production experience with embeddings-based retrieval systems and vector databases",
        "tags": [
          "requirement"
        ]
      },
      {
        "id": "chunk_3",
        "description": "experience with evaluation frameworks for ranking systems",
        "tags": [
          "requirement"
        ]
      },
      {
        "id": "chunk_4",
        "description": "not a pure research environment",
        "tags": [
          "disqualifier"
        ]
      },
      {
        "id": "chunk_5",
        "description": "not primarily recent LangChain projects",
        "tags": [
          "disqualifier"
        ]
      },
      {
        "id": "chunk_6",
        "description": "written production code in the last 18 months",
        "tags": [
          "requirement"
        ]
      }
    ],
    "domain": {
      "primary_domains": [
        "Talent Intelligence",
        "Search",
        "Information Retrieval"
      ],
      "secondary_domains": [
        "HR-tech",
        "recruiting tech",
        "marketplace products"
      ],
      "missing_domains": [
        "computer vision",
        "speech",
        "robotics"
      ]
    },
    "execution_style": {
      "shipping_bias": "high",
      "product_mindset": "high",
      "research_bias": "low",
      "ambiguity_tolerance": "high",
      "ownership": "high",
      "system_design_depth": "high"
    },
    "trust_signals": {
      "requires_active_platform_presence": true,
      "weights": {
        "recruiter_response_rate": "high",
        "interview_completion_rate": "not_mentioned",
        "offer_acceptance_rate": "not_mentioned",
        "github_score": "not_mentioned",
        "profile_completeness": "not_mentioned"
      },
      "notes": "active on Redrob platform"
    }
  },
  "semantic_documents": {
    "identity": "{\"role_family\":\"AI Engineer\",\"secondary_roles\":[\"Applied ML Engineer\",\"Search Engineer\",\"Ranking Engineer\",\"Information Retrieval Engineer\"],\"seniority\":\"senior\",\"career_transition\":{\"from\":\"applied ML/AI roles at product companies\",\"to\":\"owning the intelligence layer of Redrob's product\"}}",
    "skills": "{\"core_production_skills\":[\"embeddings-based retrieval systems\",\"vector databases or hybrid search infrastructure\",\"Python\"],\"ml_skills\":[\"modern ML systems\",\"LLMs\",\"fine-tuning\"],\"ml_infra_skills\":[\"distributed systems\",\"large-scale inference optimization\"],\"weak_skills\":[\"LLM fine-tuning experience\",\"learning-to-rank models\",\"HR-tech\",\"recruiting tech\",\"marketplace products\"],\"noisy_non_relevant_skills\":[\"LangChain tutorials\",\"framework buzzwords\",\"computer vision\",\"speech\",\"robotics\"]}",
    "experience_summary": "{\"summary\":{\"system_types\":[\"ranking system\",\"retrieval system\"],\"scale\":{\"daily_data_processed\":\"unknown\",\"source_systems\":0,\"realtime_systems\":true},\"production_maturity\":\"high\",\"ml_maturity\":\"high\"},\"chunks\":[{\"id\":\"chunk_1\",\"description\":\"5-9 years of experience with 4-5 years in applied ML/AI roles at product companies\",\"tags\":[\"ideal_signal\"]},{\"id\":\"chunk_2\",\"description\":\"production experience with embeddings-based retrieval systems and vector databases\",\"tags\":[\"requirement\"]},{\"id\":\"chunk_3\",\"description\":\"experience with evaluation frameworks for ranking systems\",\"tags\":[\"requirement\"]},{\"id\":\"chunk_4\",\"description\":\"not a pure research environment\",\"tags\":[\"disqualifier\"]},{\"id\":\"chunk_5\",\"description\":\"not primarily recent LangChain projects\",\"tags\":[\"disqualifier\"]},{\"id\":\"chunk_6\",\"description\":\"written production code in the last 18 months\",\"tags\":[\"requirement\"]}]}",
    "domain": "{\"primary_domains\":[\"Talent Intelligence\",\"Search\",\"Information Retrieval\"],\"secondary_domains\":[\"HR-tech\",\"recruiting tech\",\"marketplace products\"],\"missing_domains\":[\"computer vision\",\"speech\",\"robotics\"]}",
    "execution_style": "{\"shipping_bias\":\"high\",\"product_mindset\":\"high\",\"research_bias\":\"low\",\"ambiguity_tolerance\":\"high\",\"ownership\":\"high\",\"system_design_depth\":\"high\"}",
    "trust_signals": "{\"requires_active_platform_presence\":true,\"weights\":{\"recruiter_response_rate\":\"high\",\"interview_completion_rate\":\"not_mentioned\",\"offer_acceptance_rate\":\"not_mentioned\",\"github_score\":\"not_mentioned\",\"profile_completeness\":\"not_mentioned\"},\"notes\":\"active on Redrob platform\"}",
    "default": "metadata: {\"years_of_experience\":{\"minimum\":5,\"preferred\":6,\"flexible\":true},\"location\":[\"Pune\",\"Noida\",\"Hyderabad\",\"Mumbai\",\"Delhi NCR\"],\"country\":\"India\",\"preferred_work_mode\":\"hybrid\",\"notice_period_days\":{\"preferred_max\":30,\"hard_cap\":null},\"salary_range_lpa\":{\"min\":null,\"max\":null},\"visa_sponsorship\":false}\nidentity: {\"role_family\":\"AI Engineer\",\"secondary_roles\":[\"Applied ML Engineer\",\"Search Engineer\",\"Ranking Engineer\",\"Information Retrieval Engineer\"],\"seniority\":\"senior\",\"career_transition\":{\"from\":\"applied ML/AI roles at product companies\",\"to\":\"owning the intelligence layer of Redrob's product\"}}\nskills: {\"core_production_skills\":[\"embeddings-based retrieval systems\",\"vector databases or hybrid search infrastructure\",\"Python\"],\"ml_skills\":[\"modern ML systems\",\"LLMs\",\"fine-tuning\"],\"ml_infra_skills\":[\"distributed systems\",\"large-scale inference optimization\"],\"weak_skills\":[\"LLM fine-tuning experience\",\"learning-to-rank models\",\"HR-tech\",\"recruiting tech\",\"marketplace products\"],\"noisy_non_relevant_skills\":[\"LangChain tutorials\",\"framework buzzwords\",\"computer vision\",\"speech\",\"robotics\"]}\nexperience_summary: {\"system_types\":[\"ranking system\",\"retrieval system\"],\"scale\":{\"daily_data_processed\":\"unknown\",\"source_systems\":0,\"realtime_systems\":true},\"production_maturity\":\"high\",\"ml_maturity\":\"high\"}\nexperience_chunks: [{\"id\":\"chunk_1\",\"description\":\"5-9 years of experience with 4-5 years in applied ML/AI roles at product companies\",\"tags\":[\"ideal_signal\"]},{\"id\":\"chunk_2\",\"description\":\"production experience with embeddings-based retrieval systems and vector databases\",\"tags\":[\"requirement\"]},{\"id\":\"chunk_3\",\"description\":\"experience with evaluation frameworks for ranking systems\",\"tags\":[\"requirement\"]},{\"id\":\"chunk_4\",\"description\":\"not a pure research environment\",\"tags\":[\"disqualifier\"]},{\"id\":\"chunk_5\",\"description\":\"not primarily recent LangChain projects\",\"tags\":[\"disqualifier\"]},{\"id\":\"chunk_6\",\"description\":\"written production code in the last 18 months\",\"tags\":[\"requirement\"]}]\ndomain: {\"primary_domains\":[\"Talent Intelligence\",\"Search\",\"Information Retrieval\"],\"secondary_domains\":[\"HR-tech\",\"recruiting tech\",\"marketplace products\"],\"missing_domains\":[\"computer vision\",\"speech\",\"robotics\"]}\nexecution_style: {\"shipping_bias\":\"high\",\"product_mindset\":\"high\",\"research_bias\":\"low\",\"ambiguity_tolerance\":\"high\",\"ownership\":\"high\",\"system_design_depth\":\"high\"}\ntrust_signals: {\"requires_active_platform_presence\":true,\"weights\":{\"recruiter_response_rate\":\"high\",\"interview_completion_rate\":\"not_mentioned\",\"offer_acceptance_rate\":\"not_mentioned\",\"github_score\":\"not_mentioned\",\"profile_completeness\":\"not_mentioned\"},\"notes\":\"active on Redrob platform\"}"
  },
  "vectors": {
    "identity": [
      -0.015368,
      -0.026734,
      -0.012333,
      -0.023333,
      -0.009413,
      0.014213,
      -0.002032,
      0.02485,
      0.000237,
      -0.00135,
      -0.005296,
      -0.018873,
      -0.003096,
      0.020664,
      0.009969,
      -0.010398,
      -0.028528,
      -0.012526,
      -0.024818,
      -0.010283,
      -0.011473,
      0.016342,
      0.018242,
      0.004309,
      0.012125,
      0.066202,
      -0.013346,
      -0.007131,
      -0.017,
      0.001171,
      -0.003638,
      -0.021637,
      -0.036249,
      -0.008205,
      -0.01558,
      -0.016913,
      0.001116,
      0.001656,
      -0.055207,
      -0.007514,
      -0.010005,
      -0.007123,
      -0.012937,
      -0.009479,
      0.013926,
      0.006487,
      0.002314,
      -0.034829,
      -0.019087,
      -0.038457,
      -0.003113,
      -0.002163,
      0.015049,
      -0.013158,
      -0.028744,
      0.010981,
      -0.008732,
      0.014919,
      -0.038521,
      0.014839,
      -0.01988,
      -0.000531,
      -0.025126,
      -0.02557,
      -0.026789,
      0.033759,
      -0.008869,
      0.004636,
      0.022779,
      -0.057812,
      -0.020101,
      0.021481,
      -0.034126,
      -0.028987,
      -0.026337,
      0.029028,
      0.010434,
      -0.012216,
      -0.008503,
      0.004755,
      0.050416,
      -0.013977,
      0.001213,
      0.011718,
      -0.031127,
      0.010506,
      -0.032133,
      0.010989,
      0.000656,
      0.009841,
      -0.010139,
      0.018062,
      0.007716,
      -0.01416,
      0.001423,
      -0.012019,
      0.005341,
      -0.01347,
      -0.002386,
      -0.022883,
      -0.008706,
      0.00184,
      -0.023026,
      0.005724,
      0.038374,
      0.016222,
      -0.040594,
      0.048795,
      -0.013085,
      0.000303,
      0.018696,
      0.000562,
      0.016973,
      0.021562,
      0.000816,
      -0.032902,
      -0.016701,
      -0.002919,
      0.038037,
      0.025787,
      0.002708,
      0.057862,
      0.018641,
      -0.018743,
      -0.006406,
      0.005176,
      0.005509,
      -0.009617,
      -0.027706,
      -0.013646,
      0.024749,
      0.029409,
      -0.013849,
      0.00729,
      -0.004937,
      -0.054638,
      0.019675,
      -0.024358,
      -0.024947,
      -0.056388,
      0.041952,
      0.022974,
      -0.018787,
      -0.003444,
      0.017811,
      -0.003364,
      0.02416,
      0.009683,
      0.016041,
      0.004665,
      -0.007838,
      -0.017353,
      0.002563,
      0.026278,
      0.00896,
      -0.000841,
      0.011938,
      0.025004,
      0.005519,
      0.00243,
      0.015506,
      0.024661,
      0.004553,
      0.016149,
      -0.006866,
      -0.006483,
      -0.024146,
      0.047951,
      0.022875,
      -0.020354,
      -0.034188,
      -0.008464,
      -0.003191,
      -0.020527,
      0.006671,
      0.015727,
      0.04903,
      0.020388,
      0.011494,
      -0.028949,
      -0.025317,
      0.002734,
      -0.014388,
      -0.022179,
      -0.005038,
      -0.025574,
      0.022891,
      -0.022676,
      0.023409,
      0.014169,
      -0.020618,
      -0.029229,
      0.032011,
      0.033281,
      0.009053,
      -0.019853,
      -0.041511,
      -0.018093,
      0.029271,
      -0.029915,
      0.002034,
      0.006317,
      -0.032436,
      -0.012686,
      -0.031684,
      0.008243,
      0.005725,
      -0.027567,
      -0.012516,
      -0.007592,
      0.04125,
      0.003476,
      -0.022988,
      0.03055,
      -0.027269,
      -0.014601,
      -0.000584,
      -0.015484,
      -0.003392,
      -0.01358,
      -0.038115,
      0.031466,
      -0.017806,
      0.014096,
      -0.015819,
      -0.005498,
      0.035596,
      0.029672,
      0.021259,
      0.010284,
      -0.004142,
      0.006593,
      -0.025645,
      -0.062824,
      0.006719,
      -0.009835,
      -0.021811,
      -0.021103,
      0.008574,
      0.017999,
      -0.013536,
      -0.016376,
      -0.009223,
      0.013134,
      -0.03383,
      -0.016467,
      0.001667,
      0.027045,
      -0.015602,
      0.021415,
      -0.017407,
      -0.025182,
      0.004301,
      -0.029141,
      -0.011454,
      0.008427,
      -0.01636,
      -0.006493,
      -0.010553,
      0.043858,
      0.026144,
      0.001728,
      0.004202,
      0.012489,
      0.00105,
      0.015698,
      -0.014115,
      -0.0085,
      0.033956,
      0.014417,
      -0.009905,
      0.00915,
      -0.000404,
      0.000661,
      0.018427,
      -0.028917,
      -0.004823,
      -0.031354,
      0.033791,
      -0.006306,
      -0.005043,
      0.002431,
      0.010763,
      -0.038306,
      -0.002435,
      0.013946,
      -0.011002,
      -0.000738,
      0.035466,
      -0.024483,
      -0.013041,
      0.006077,
      0.093576,
      -0.020712,
      -0.016395,
      0.014249,
      -0.009015,
      -0.10634,
      -0.015467,
      -0.013582,
      0.014861,
      0.026319,
      -0.003177,
      -0.022149,
      -0.018179,
      -0.01947,
      0.003453,
      -0.028823,
      -0.087146,
      -0.025294,
      -0.012538,
      -0.019354,
      0.01032,
      0.001736,
      0.045098,
      -0.02026,
      -0.078093,
      -0.006731,
      -0.001057,
      0.030602,
      -0.001113,
      0.037817,
      -0.021723,
      0.037472,
      0.011989,
      -0.030114,
      -0.000469,
      -0.002159,
      0.03036,
      -0.008962,
      0.02183,
      -0.000106,
      -0.005472,
      0.002124,
      -0.018312,
      -0.002838,
      -0.00687,
      0.047756,
      -0.017627,
      0.033756,
      -0.010374,
      0.020557,
      -0.02248,
      -0.01266,
      0.005547,
      -0.049986,
      0.015185,
      0.006847,
      -0.012511,
      0.016271,
      0.011998,
      -0.009978,
      -0.01782,
      0.019732,
      0.053185,
      0.031089,
      -0.007483,
      -0.046484,
      0.010017,
      -0.02406,
      0.010397,
      0.032293,
      -0.023131,
      -0.002901,
      0.002398,
      0.011585,
      -0.021499,
      0.017937,
      -0.001379,
      -0.01673,
      -0.044844,
      -0.025626,
      0.020595,
      -0.029078,
      -0.043373,
      -0.001371,
      -0.074664,
      -0.010447,
      -0.006212,
      -0.002232,
      0.008569,
      -0.021676,
      -0.004227,
      -0.020206,
      -0.031894,
      0.023595,
      0.711335,
      0.026303,
      0.012448,
      -0.015094,
      0.012364,
      0.013279,
      0.007587,
      0.005027,
      0.024499,
      -0.017163,
      0.013445,
      -0.012152,
      0.033724,
      -0.000555,
      0.034122,
      0.020664,
      -0.029561,
      -0.003118,
      0.026891,
      -0.018784,
      0.014731,
      -0.013746,
      0.030202,
      0.003746,
      -0.050319,
      0.023735,
      0.010164,
      -0.009287,
      -0.025791,
      0.030143,
      -0.020692,
      0.006716,
      -0.005789,
      -0.012337,
      -0.012497,
      -0.001314,
      -0.004294,
      -0.001569,
      -0.008456,
      -0.004861,
      -0.025455,
      -0.016432,
      -0.001825,
      -0.004818,
      0.001394,
      0.005071,
      0.01561,
      -0.004353,
      0.026697,
      -0.001325,
      0.024818,
      -0.017334,
      -0.029899,
      0.009151,
      0.018061,
      -0.007038,
      -0.042732,
      0.036998,
      0.032116,
      -0.007205,
      0.008948,
      0.017709,
      -0.023133,
      0.052424,
      0.019068,
      -0.015922,
      -0.007442,
      -0.039073,
      -0.002292,
      0.020594,
      0.026598,
      0.035911,
      0.00498,
      -0.029089,
      -0.017878,
      -0.026373,
      0.033526,
      0.00848,
      0.026117,
      -0.014329,
      -0.009461,
      0.00176,
      0.028077,
      0.008711,
      0.020533,
      -0.031958,
      -0.046404,
      0.030908,
      0.010846,
      0.002445,
      -0.005632,
      -0.028503,
      0.000612,
      0.007454,
      -0.013055,
      -0.017638,
      0.018266,
      -0.038961,
      0.006104,
      -0.012083,
      0.006575,
      -0.000182,
      -0.025297,
      0.005712,
      0.006779,
      -0.010575,
      0.021399,
      0.01665,
      -0.008897,
      0.017366,
      -0.023049,
      0.02937,
      0.008137,
      0.005196,
      0.027223,
      0.018378,
      -0.00014,
      0.041096,
      0.003115,
      -0.001719,
      -0.02514,
      -0.003881,
      0.00572,
      -0.008481,
      -0.013913,
      -0.046515,
      0.006881,
      0.003073,
      -0.001071,
      0.021107,
      0.019545,
      0.024477,
      0.003218,
      -0.026892,
      0.013437,
      -0.027586,
      -0.005835,
      0.019485,
      -0.000257,
      0.023215,
      -0.005594,
      -0.03251,
      -0.034202,
      -0.004123,
      -0.020071,
      0.04121,
      -0.014852,
      0.019201,
      -0.01808,
      -0.003141,
      0.024398,
      -0.010108,
      -0.00749,
      -0.036101,
      -0.018339,
      -0.029091,
      0.001032,
      0.019189,
      -0.002647,
      -0.016671,
      0.002083,
      0.038671,
      0.033243,
      0.038596,
      -0.011861,
      0.034386,
      0.032624,
      0.030723,
      0.012706,
      -0.024363,
      0.013928,
      -0.019837,
      -0.000823,
      0.021879,
      0.037351,
      -0.011645,
      -0.035979,
      -0.00989,
      -0.013718,
      -0.019328,
      0.020806,
      0.008496,
      -0.005728,
      0.037051,
      -0.022604,
      0.012125,
      -0.001663,
      0.019664,
      0.025252,
      -0.036633,
      0.028064,
      0.062553,
      0.022644,
      0.011809,
      -0.010435,
      -0.017931,
      -0.00232,
      0.006879,
      -0.022318,
      -0.00066,
      0.020847,
      0.022972,
      0.040152,
      -0.018124,
      0.016324,
      -0.009345,
      -0.030496,
      0.011074,
      -0.024443,
      -0.009054,
      -0.00241,
      -0.02368,
      -0.024538,
      -0.01948,
      -0.028557,
      -0.006358,
      0.021969,
      0.013944,
      -0.007751,
      0.028817,
      -0.014092,
      -0.022217,
      0.005098,
      -0.043842,
      -0.031744,
      0.03568,
      0.013347,
      -0.037123,
      -0.009301,
      0.031013,
      -0.012174,
      -0.01056,
      -0.015823,
      -0.004373,
      -0.001945,
      -0.014515,
      0.004404,
      0.004909,
      0.029488,
      0.004475,
      -0.000179,
      -0.018563,
      0.015289,
      0.057256,
      0.016242,
      -0.0187,
      -0.015354,
      -0.014614,
      0.022256,
      0.002064,
      -0.029123,
      0.010326,
      -0.017862,
      -0.001052,
      0.018426,
      -0.006787,
      0.004376,
      -0.008444,
      -0.020361,
      0.025406,
      0.008975,
      0.00352,
      -0.00326,
      -0.015512,
      -0.022618,
      0.00955,
      0.014613,
      -0.036337,
      -0.015986,
      -0.018162,
      -0.006949,
      -0.026927,
      -0.03161,
      -0.020086,
      -0.008942,
      0.001018,
      0.017004,
      -0.005529,
      -0.017512,
      0.009559,
      -0.048026,
      -0.009095,
      0.005647,
      0.018078,
      -0.030936,
      -0.048013,
      -0.003198,
      -0.000767,
      0.010294,
      -0.023447,
      0.020472,
      0.006461,
      -0.055734,
      -0.014408,
      -0.001722,
      0.011423,
      0.002,
      0.032608,
      -0.003037,
      0.008422,
      -0.007817,
      -0.001249,
      -0.003389,
      0.017962,
      -0.019129,
      0.0344,
      -0.004906,
      -0.012966,
      -0.02931,
      -0.024348,
      -0.009677,
      -0.036437,
      -0.007544,
      0.005353,
      -0.025743,
      -0.008352,
      -0.00529,
      -0.009676,
      0.02292,
      0.005556,
      0.057381,
      0.004015,
      -0.036907,
      -0.032157,
      -0.018054,
      0.007144,
      -0.02716,
      0.013637,
      -0.00521,
      -0.040788,
      -0.004272,
      -0.004013,
      0.013177,
      -0.00018,
      -0.005548,
      0.002963,
      0.027913,
      -0.01242,
      0.009557,
      -0.005155,
      0.000125,
      -0.002777,
      0.05758,
      -0.002897,
      0.025055,
      0.025072,
      0.006483,
      -0.018305,
      -0.018436,
      -0.015149,
      0.019548,
      -0.026718,
      -0.034175,
      -0.015681,
      0.026142,
      0.002049,
      -0.019785,
      -0.036543,
      0.009992,
      0.00275,
      -0.034377,
      0.023724,
      -0.002001,
      0.004638,
      -0.002547,
      0.008046,
      -0.004121,
      -0.030968,
      0.03169,
      -0.019582,
      0.009301,
      -0.003016,
      0.015207,
      -0.009696,
      -0.048005,
      -0.004037,
      0.012007,
      0.009287,
      0.005335,
      -0.022852,
      -0.010508,
      -0.007144,
      -0.003758,
      -0.02549,
      -0.017011,
      -0.029346,
      -0.015331,
      -0.011637,
      0.005232,
      0.044532,
      0.010516,
      -0.014054,
      0.001361,
      -0.018754,
      -0.079389,
      -0.004152,
      -0.035248,
      0.010601,
      0.009427,
      0.01694,
      0.004712,
      -0.02819,
      0.00194,
      -0.012994,
      0.000529,
      -0.000095,
      -0.00696,
      -0.013353,
      0.006245,
      -0.003246,
      -0.030225,
      0.004471,
      0.006296,
      0.030566,
      -0.004536,
      0.008008,
      0.022149,
      0.025439,
      0.015623,
      0.001121,
      -0.018823,
      0.024637,
      -0.009058,
      -0.011332,
      0.022791,
      0.000023,
      -0.013317,
      0.039966,
      0.010495,
      -0.010913,
      -0.028254,
      -0.024197,
      -0.005019,
      0.03403,
      0.021788,
      -0.005989,
      -0.000211,
      -0.005796,
      -0.02216,
      0.009885,
      -0.012028,
      -0.034899,
      -0.006002,
      -0.009384,
      -0.002372,
      -0.005918,
      0.00192,
      -0.008574,
      0.027376,
      0.007146,
      0.007673,
      -0.001902,
      0.001013,
      0.039791,
      -0.027166,
      -0.000518,
      0.016834,
      0.000562,
      0.031742,
      -0.00483,
      -0.021647,
      -0.044104,
      0.010098,
      -0.004787,
      0.031046,
      -0.021616,
      -0.008832,
      -0.012272,
      0.019082,
      0.010988,
      -0.025094,
      -0.013279,
      -0.004443,
      -0.026968,
      0.013622,
      0.00138,
      -0.024741,
      0.021512,
      0.006419,
      0.002922,
      -0.011041,
      -0.013107,
      -0.034661,
      -0.004158,
      -0.037236,
      -0.013205,
      -0.004422,
      -0.002852,
      -0.009072,
      0.007393,
      -0.033685,
      0.03143,
      -0.012473,
      0.027114,
      0.009523,
      0.008387,
      0.029376,
      -0.000643,
      -0.003513,
      -0.006501,
      0.01209,
      0.008349,
      0.002823,
      -0.020231,
      -0.023226,
      -0.03048,
      0.01253,
      0.032114,
      0.00489,
      -0.000032,
      0.009807,
      0.023827,
      0.005103,
      -0.002909,
      -0.009747,
      0.026952,
      0.01512,
      -0.055594,
      -0.001913,
      0.01963,
      -0.006961,
      0.018851,
      0.040212,
      0.008281,
      0.021561,
      -0.019869,
      0.005819,
      0.02228,
      0.016375,
      -0.023367,
      -0.00588,
      0.040727,
      -0.021727,
      -0.016177,
      0.013634,
      0.015952,
      0.009324,
      -0.03319,
      -0.027928,
      -0.017243,
      -0.029912,
      -0.020396,
      -0.008221,
      0.011547,
      0.012386,
      -0.003608,
      -0.015874,
      0.000948,
      -0.025801,
      0.011172,
      -0.010504,
      0.017481,
      -0.030406,
      0.069483,
      0.019932,
      -0.045889,
      -0.025883,
      -0.01148,
      0.00112,
      0.007308,
      -0.00306,
      -0.027711,
      -0.007137,
      0.013972,
      0.039242,
      0.005914,
      -0.003499,
      -0.00361,
      0.028351,
      -0.016177,
      0.006822,
      0.058283,
      0.01565,
      -0.021543,
      -0.004208,
      -0.01036,
      0.022715,
      0.004092,
      0.005863,
      -0.014591,
      0.035903,
      0.020191,
      0.009979,
      -0.001246,
      -0.011496,
      0.003492,
      -0.009108,
      -0.01042,
      0.02853,
      -0.000238,
      0.013405,
      -0.009686,
      0.000913,
      0.000493,
      -0.039591,
      -0.012999,
      -0.009153,
      -0.00168,
      -0.00206,
      0.005085,
      0.008338,
      -0.024274,
      -0.02646,
      0.008345,
      0.00648,
      -0.012443,
      0.010218,
      0.028911,
      0.002309,
      -0.012264,
      0.007555,
      0.002934,
      0.03768,
      0.032355,
      0.011426,
      0.006892,
      0.007364,
      -0.048057,
      -0.008119,
      -0.047826,
      0.000144,
      0.004874,
      -0.008344,
      -0.01013,
      -0.003993,
      0.043297,
      0.020566,
      0.017187,
      -0.021962,
      0.008832,
      -0.018694,
      0.019479,
      -0.033928,
      -0.036815,
      0.00361,
      -0.014811,
      -0.007452,
      0.006698
    ],
    "skills": [
      -0.008204,
      0.025149,
      0.01041,
      0.009333,
      0.014002,
      0.013358,
      -0.003996,
      0.039934,
      -0.022104,
      0.002926,
      -0.017604,
      -0.009057,
      -0.005175,
      0.018345,
      0.014387,
      -0.008374,
      -0.026516,
      0.007965,
      0.021568,
      -0.023,
      -0.010023,
      -0.023872,
      0.023558,
      -0.021135,
      0.005577,
      0.073061,
      0.004013,
      0.000541,
      -0.024594,
      0.015695,
      0.018698,
      0.012725,
      0.010548,
      -0.010337,
      -0.017823,
      -0.039906,
      -0.013983,
      0.009203,
      -0.07201,
      -0.008205,
      -0.004222,
      0.020768,
      -0.022087,
      -0.006779,
      0.004452,
      0.016028,
      -0.011032,
      -0.056666,
      0.001554,
      -0.024371,
      0.014629,
      0.013796,
      0.011235,
      -0.017398,
      -0.015658,
      0.00502,
      -0.042975,
      0.014757,
      -0.016863,
      -0.003771,
      0.011794,
      0.02091,
      -0.002633,
      -0.004751,
      0.018627,
      0.031008,
      -0.031978,
      0.013441,
      0.035862,
      -0.045423,
      -0.005112,
      0.016246,
      -0.050464,
      -0.017998,
      -0.029454,
      0.021714,
      0.014626,
      -0.016688,
      0.019523,
      -0.002623,
      0.068747,
      -0.002961,
      0.027338,
      -0.000666,
      -0.032025,
      0.002534,
      -0.012103,
      -0.001094,
      0.015602,
      -0.004208,
      -0.009002,
      0.024469,
      -0.001636,
      -0.026395,
      -0.000827,
      -0.02007,
      0.003409,
      0.004805,
      -0.018159,
      -0.004856,
      -0.034013,
      0.002082,
      0.011263,
      0.013928,
      0.053659,
      0.019958,
      -0.013599,
      0.019728,
      -0.02913,
      0.010094,
      0.020254,
      0.013004,
      -0.00995,
      0.010381,
      -0.004279,
      -0.036428,
      -0.005154,
      -0.040606,
      0.042872,
      -0.001738,
      0.000147,
      0.072317,
      0.030701,
      -0.041456,
      0.006187,
      0.014326,
      0.006411,
      0.026825,
      -0.028824,
      0.012676,
      -0.00987,
      0.015519,
      -0.012804,
      0.012515,
      -0.005802,
      -0.06217,
      0.002476,
      -0.040957,
      -0.011522,
      -0.034048,
      0.0264,
      0.002474,
      -0.019527,
      -0.02976,
      0.002712,
      -0.017886,
      -0.014265,
      -0.001645,
      -0.0073,
      -0.014836,
      0.010762,
      -0.006566,
      0.035146,
      -0.004078,
      0.003065,
      0.014002,
      0.007906,
      0.012819,
      -0.009097,
      -0.003654,
      0.025333,
      0.001069,
      0.027705,
      0.021132,
      0.012624,
      -0.01467,
      0.031004,
      -0.016415,
      -0.006289,
      -0.005915,
      0.010582,
      -0.045802,
      0.009875,
      -0.004095,
      0.021371,
      0.022469,
      0.034354,
      0.029613,
      0.027179,
      -0.030979,
      0.006628,
      0.001651,
      0.014892,
      0.002913,
      -0.00679,
      -0.024051,
      0.006624,
      -0.029606,
      0.008463,
      -0.005455,
      -0.000636,
      -0.032685,
      0.043361,
      0.02744,
      0.04387,
      -0.014342,
      0.01456,
      -0.005944,
      0.010542,
      -0.033448,
      0.003421,
      -0.002009,
      -0.055859,
      0.01132,
      -0.034414,
      0.020527,
      -0.01491,
      -0.023755,
      0.005639,
      0.013126,
      0.040121,
      0.025495,
      -0.011125,
      0.004578,
      -0.021097,
      0.006869,
      -0.015942,
      0.010351,
      0.003978,
      -0.009673,
      -0.015331,
      -0.009361,
      0.003085,
      -0.01535,
      -0.017747,
      -0.040658,
      0.000453,
      0.029548,
      0.040565,
      0.017232,
      0.016877,
      0.014655,
      -0.015957,
      -0.050097,
      0.000228,
      -0.01953,
      -0.039632,
      -0.021557,
      0.033673,
      0.01048,
      -0.004284,
      -0.040611,
      -0.02902,
      -0.015198,
      -0.049585,
      0.003796,
      0.016696,
      0.029135,
      -0.021879,
      0.019391,
      0.013796,
      0.001434,
      0.020969,
      -0.017618,
      0.000142,
      -0.011441,
      -0.020041,
      -0.019281,
      -0.043169,
      0.001507,
      0.035361,
      0.01685,
      0.015687,
      0.021148,
      -0.005045,
      0.006036,
      -0.007699,
      -0.046647,
      0.018969,
      0.018086,
      0.002832,
      -0.000943,
      0.019615,
      -0.025978,
      -0.024233,
      0.00069,
      -0.021906,
      -0.019717,
      0.047761,
      0.021873,
      0.001068,
      -0.038421,
      -0.020154,
      -0.023079,
      -0.004181,
      0.029393,
      -0.013383,
      0.01017,
      0.019527,
      -0.008091,
      -0.017667,
      -0.005754,
      0.092023,
      -0.02556,
      0.008851,
      0.02228,
      -0.003944,
      -0.105934,
      -0.007913,
      -0.021748,
      -0.013899,
      0.036125,
      -0.009847,
      0.007199,
      0.025119,
      -0.029765,
      -0.026161,
      -0.022357,
      -0.090173,
      -0.026319,
      -0.03473,
      0.011325,
      0.008224,
      0.009923,
      0.044051,
      -0.009491,
      -0.080893,
      0.01027,
      -0.00339,
      0.02727,
      0.008814,
      0.028327,
      -0.022052,
      0.021145,
      0.031468,
      -0.013197,
      0.013431,
      -0.021471,
      0.034829,
      -0.00213,
      -0.007261,
      0.013723,
      -0.019435,
      0.002529,
      -0.005309,
      -0.009188,
      0.013921,
      0.036794,
      0.010285,
      0.008925,
      0.004688,
      0.019027,
      -0.026399,
      0.002959,
      -0.001155,
      -0.030629,
      -0.001595,
      -0.022447,
      -0.013148,
      0.004266,
      -0.009361,
      -0.003571,
      -0.006319,
      0.006401,
      0.025504,
      0.032218,
      -0.02443,
      -0.022357,
      -0.002956,
      -0.034618,
      -0.015458,
      -0.020367,
      -0.032362,
      0.025478,
      -0.011072,
      -0.00171,
      -0.036666,
      0.008494,
      0.027349,
      -0.011562,
      -0.045083,
      0.012077,
      0.007725,
      -0.006872,
      -0.01651,
      -0.005838,
      -0.083627,
      0.002158,
      0.003327,
      0.007433,
      0.045955,
      -0.006749,
      0.01206,
      -0.010583,
      -0.018059,
      0.033199,
      0.69038,
      -0.023617,
      -0.009453,
      -0.008158,
      0.01923,
      0.035964,
      -0.010584,
      0.014231,
      0.007588,
      -0.01437,
      0.007254,
      0.022985,
      0.030649,
      -0.012961,
      0.039524,
      0.016143,
      -0.043936,
      -0.005729,
      0.017937,
      0.000673,
      0.005153,
      -0.033985,
      0.034804,
      -0.013594,
      -0.044642,
      0.007308,
      -0.021109,
      0.01077,
      -0.036511,
      0.010805,
      -0.024544,
      0.017289,
      0.014811,
      -0.014677,
      -0.000594,
      -0.027449,
      -0.025875,
      -0.00695,
      -0.015339,
      -0.002324,
      -0.008661,
      -0.021352,
      -0.014802,
      -0.010124,
      -0.010924,
      0.00987,
      0.025658,
      0.014427,
      0.022978,
      -0.007026,
      0.011446,
      -0.013766,
      -0.035893,
      0.002637,
      0.00759,
      0.019275,
      -0.008516,
      0.010715,
      0.003595,
      -0.00477,
      0.032548,
      0.035327,
      -0.001407,
      0.036571,
      0.010752,
      -0.004971,
      -0.006585,
      -0.048349,
      -0.00337,
      0.000501,
      0.03447,
      0.047163,
      -0.005025,
      -0.016912,
      -0.020061,
      -0.014058,
      0.009826,
      0.001091,
      -0.002974,
      -0.011723,
      -0.018936,
      -0.009288,
      0.01544,
      0.011867,
      0.012272,
      -0.031768,
      -0.0292,
      0.011503,
      -0.019641,
      -0.027371,
      -0.008055,
      -0.037832,
      0.002226,
      -0.009434,
      0.00308,
      0.002365,
      0.005756,
      -0.037408,
      -0.033105,
      -0.028228,
      0.014721,
      0.011028,
      0.005514,
      0.033379,
      -0.032638,
      -0.017013,
      -0.021058,
      -0.015024,
      0.019358,
      0.007481,
      -0.037173,
      0.017579,
      0.004285,
      -0.004436,
      0.040731,
      -0.011743,
      0.010776,
      -0.00447,
      0.011679,
      -0.008869,
      -0.034588,
      0.000972,
      -0.006184,
      -0.019025,
      -0.009499,
      -0.038201,
      -0.001947,
      0.030207,
      -0.014409,
      0.010428,
      0.002604,
      0.025917,
      0.025788,
      -0.021075,
      0.026225,
      -0.024639,
      -0.022844,
      0.005106,
      -0.00132,
      0.008125,
      -0.001377,
      -0.033947,
      -0.026013,
      0.003606,
      -0.000825,
      0.030725,
      -0.010149,
      -0.000468,
      -0.025157,
      -0.018307,
      0.014392,
      -0.01585,
      0.041742,
      -0.01396,
      -0.017379,
      -0.028955,
      0.005194,
      0.017298,
      0.005602,
      -0.021297,
      -0.00162,
      -0.006979,
      0.004358,
      0.057022,
      0.006078,
      0.028452,
      0.009817,
      0.018494,
      -0.017543,
      -0.000439,
      -0.007412,
      -0.024068,
      0.006394,
      0.045345,
      0.004767,
      -0.014985,
      -0.035564,
      0.002212,
      -0.025356,
      -0.001193,
      0.03408,
      0.004187,
      0.003579,
      0.053104,
      -0.051754,
      -0.015925,
      0.008781,
      0.012316,
      0.023387,
      -0.012132,
      0.016852,
      0.047836,
      -0.000967,
      -0.004391,
      0.007936,
      0.005002,
      -0.001597,
      -0.002346,
      -0.00132,
      -0.01913,
      0.017123,
      0.007194,
      0.023093,
      0.001925,
      0.050727,
      0.00137,
      -0.004876,
      0.018139,
      -0.023411,
      -0.016285,
      -0.000628,
      -0.016579,
      0.016077,
      -0.006692,
      -0.007458,
      -0.014168,
      0.005944,
      0.02523,
      0.000378,
      0.015665,
      0.005196,
      -0.01865,
      -0.003713,
      -0.037995,
      0.006232,
      0.012761,
      0.002086,
      -0.028929,
      -0.027372,
      0.032949,
      -0.014721,
      -0.017687,
      -0.017523,
      -0.002646,
      -0.002098,
      0.000337,
      -0.02398,
      0.009601,
      0.023328,
      0.018182,
      -0.041191,
      -0.035166,
      -0.015308,
      0.033691,
      -0.005182,
      -0.004696,
      0.018451,
      0.009762,
      0.001051,
      0.01393,
      -0.000426,
      0.00127,
      -0.04134,
      0.00183,
      0.012498,
      0.005898,
      0.001791,
      -0.012164,
      -0.007262,
      0.014767,
      -0.000677,
      0.00734,
      -0.007301,
      0.023357,
      -0.017007,
      -0.006567,
      -0.021708,
      -0.055204,
      -0.000688,
      -0.048788,
      0.00018,
      -0.015384,
      -0.036063,
      -0.009276,
      0.015184,
      -0.002541,
      -0.00712,
      -0.020049,
      -0.000524,
      0.000214,
      -0.049498,
      -0.004238,
      0.015674,
      0.003054,
      0.004543,
      -0.026907,
      -0.018283,
      -0.002673,
      0.019661,
      -0.00606,
      0.026999,
      0.00391,
      -0.029131,
      0.007374,
      0.000979,
      0.019138,
      -0.024992,
      0.028362,
      -0.005731,
      -0.026089,
      -0.007008,
      0.03494,
      0.009997,
      -0.005478,
      -0.004004,
      0.002142,
      0.021043,
      0.004223,
      0.000635,
      -0.023561,
      -0.01318,
      -0.016961,
      -0.013848,
      -0.001777,
      -0.024512,
      0.015205,
      -0.016952,
      -0.01296,
      0.024634,
      0.008376,
      0.018938,
      0.020204,
      -0.029788,
      -0.043127,
      -0.025629,
      -0.004485,
      -0.028342,
      0.010672,
      -0.018088,
      -0.059588,
      -0.014917,
      -0.018343,
      0.00348,
      -0.007038,
      -0.023099,
      0.000953,
      0.051616,
      -0.014609,
      0.008116,
      -0.021491,
      0.007997,
      0.001647,
      0.039358,
      -0.014293,
      0.022152,
      0.031774,
      0.003037,
      -0.011134,
      -0.021726,
      -0.019496,
      0.0009,
      -0.020968,
      -0.027749,
      0.004581,
      0.002729,
      -0.003898,
      -0.002395,
      0.013383,
      0.011326,
      -0.00479,
      -0.022006,
      0.053469,
      0.03181,
      0.007951,
      0.017648,
      0.014466,
      0.001725,
      -0.038684,
      0.025671,
      0.000339,
      0.004822,
      0.022686,
      -0.008586,
      -0.017931,
      -0.036454,
      0.008094,
      0.008333,
      -0.015211,
      0.014177,
      -0.040348,
      -0.01528,
      -0.002748,
      -0.001908,
      -0.026892,
      0.008573,
      -0.026551,
      -0.046337,
      0.014408,
      0.00376,
      0.030607,
      -0.000892,
      -0.006377,
      -0.013711,
      -0.000405,
      -0.084979,
      0.020214,
      -0.008726,
      -0.030736,
      -0.009306,
      -0.01272,
      0.008166,
      -0.011056,
      0.002681,
      -0.0392,
      0.045261,
      -0.002119,
      0.016,
      -0.039002,
      0.005707,
      -0.020235,
      -0.038394,
      0.017261,
      0.015548,
      0.035597,
      -0.007365,
      -0.012363,
      0.002868,
      -0.016621,
      0.00211,
      -0.006756,
      -0.014935,
      0.002579,
      0.003704,
      -0.02105,
      0.004412,
      -0.017974,
      -0.011568,
      0.064096,
      0.000178,
      0.006916,
      -0.02202,
      -0.02717,
      0.018218,
      0.047122,
      0.022987,
      -0.01454,
      -0.019727,
      0.000927,
      -0.017821,
      0.026054,
      0.004198,
      -0.028629,
      -0.00551,
      0.02172,
      -0.030255,
      0.004668,
      -0.030031,
      -0.000141,
      0.010057,
      -0.002811,
      -0.025693,
      0.002944,
      0.007558,
      0.033451,
      -0.022907,
      0.018914,
      0.000353,
      -0.006206,
      0.007449,
      -0.025638,
      -0.016112,
      -0.047309,
      0.011969,
      0.005346,
      0.024918,
      -0.013195,
      -0.035938,
      -0.014556,
      0.004662,
      0.006229,
      0.012439,
      -0.009707,
      -0.001854,
      -0.01666,
      0.005052,
      0.001539,
      0.006932,
      0.044303,
      0.03377,
      -0.024711,
      0.002436,
      -0.023873,
      -0.048715,
      -0.01938,
      -0.04565,
      -0.00437,
      -0.001915,
      -0.012282,
      -0.023767,
      -0.006871,
      -0.011136,
      0.018526,
      -0.002021,
      0.018828,
      0.005902,
      0.058814,
      0.009101,
      0.010049,
      0.033689,
      0.003173,
      0.004718,
      0.000277,
      -0.002222,
      -0.000048,
      -0.011858,
      -0.018924,
      -0.007778,
      0.013511,
      -0.018285,
      0.00585,
      0.019974,
      0.009704,
      0.019429,
      -0.029293,
      0.028649,
      0.008522,
      0.015418,
      -0.064954,
      -0.000305,
      0.018445,
      -0.01209,
      0.009633,
      0.000376,
      -0.006514,
      0.011835,
      -0.027625,
      0.007753,
      0.020285,
      0.013814,
      -0.017142,
      -0.008319,
      0.066884,
      -0.05014,
      -0.03132,
      -0.01048,
      0.006674,
      0.012909,
      -0.010387,
      -0.025376,
      -0.025617,
      -0.018181,
      -0.019674,
      -0.00643,
      -0.030453,
      0.007802,
      0.014054,
      0.011679,
      0.017702,
      0.019607,
      0.007964,
      -0.024314,
      -0.001613,
      -0.028848,
      0.073847,
      0.032854,
      -0.043191,
      -0.005514,
      0.002525,
      -0.025083,
      0.034506,
      0.00147,
      0.009138,
      0.000323,
      -0.031655,
      0.029453,
      0.028567,
      -0.027383,
      0.034576,
      -0.006823,
      -0.022457,
      0.005771,
      0.053487,
      0.017747,
      -0.022415,
      0.021199,
      -0.012821,
      0.004522,
      0.008324,
      0.007458,
      -0.021691,
      0.028828,
      -0.010908,
      -0.015839,
      0.003936,
      0.003494,
      0.024899,
      0.021294,
      0.01241,
      -0.003747,
      -0.005436,
      0.021033,
      -0.031773,
      -0.001184,
      0.030484,
      -0.061741,
      -0.014621,
      -0.024699,
      -0.028092,
      -0.040045,
      -0.014965,
      -0.010195,
      -0.025206,
      -0.029941,
      0.002505,
      0.018314,
      0.005327,
      0.009209,
      0.010548,
      -0.00199,
      0.00763,
      0.008035,
      0.010344,
      0.019932,
      0.008904,
      -0.001739,
      0.018562,
      -0.002918,
      -0.030376,
      -0.014524,
      -0.016192,
      0.014848,
      -0.007465,
      -0.001745,
      -0.004248,
      -0.001731,
      0.024756,
      -0.004342,
      0.019543,
      0.00089,
      0.008078,
      0.001752,
      0.036613,
      -0.005432,
      0.016582,
      0.012378,
      -0.006301,
      0.002281,
      0.040578
    ],
    "experience_summary": [
      -0.010104,
      -0.019231,
      -0.026326,
      0.011015,
      -0.008139,
      -0.000808,
      0.003969,
      0.058222,
      -0.032566,
      0.025995,
      -0.019423,
      -0.017971,
      -0.0091,
      0.001996,
      0.004995,
      -0.007839,
      -0.021209,
      0.002483,
      0.009296,
      -0.003096,
      -0.039556,
      0.00037,
      0.029769,
      -0.016806,
      0.00346,
      0.082366,
      -0.023228,
      -0.02138,
      -0.023021,
      0.00419,
      0.035485,
      -0.005561,
      -0.000845,
      -0.020591,
      0.001188,
      -0.038796,
      -0.016234,
      0.010917,
      -0.094417,
      -0.01385,
      0.021869,
      -0.0252,
      -0.028565,
      -0.003497,
      0.022831,
      -0.004786,
      -0.045983,
      -0.064953,
      -0.025397,
      -0.012876,
      0.001011,
      0.011112,
      0.008897,
      -0.023849,
      -0.024246,
      0.033247,
      -0.00221,
      -0.007848,
      -0.021971,
      0.01134,
      -0.014421,
      -0.000808,
      -0.019821,
      -0.019307,
      -0.012676,
      0.022758,
      -0.006194,
      0.015594,
      0.051368,
      -0.027578,
      -0.029368,
      0.014514,
      -0.02147,
      -0.047317,
      -0.022539,
      -0.005053,
      0.007263,
      -0.023821,
      -0.004842,
      -0.006709,
      0.098951,
      -0.034835,
      0.02315,
      0.00724,
      -0.017969,
      -0.007531,
      -0.010678,
      0.007321,
      -0.007208,
      -0.004168,
      -0.002842,
      0.045187,
      -0.025573,
      -0.018241,
      -0.004105,
      -0.005259,
      0.000581,
      -0.030137,
      -0.013393,
      -0.001217,
      -0.060621,
      0.000272,
      -0.006816,
      0.025161,
      0.02835,
      0.026622,
      0.004882,
      0.041679,
      -0.038667,
      0.012178,
      -0.000879,
      0.00727,
      -0.024338,
      -0.001479,
      0.002294,
      -0.029635,
      -0.006432,
      -0.004563,
      0.042187,
      -0.007658,
      -0.016173,
      0.077483,
      0.01703,
      -0.027458,
      -0.007852,
      0.024494,
      0.022378,
      0.034815,
      -0.033077,
      -0.01129,
      0.011454,
      0.041445,
      0.008703,
      0.009491,
      -0.01804,
      -0.045151,
      0.018777,
      -0.001315,
      -0.024283,
      -0.024459,
      0.011691,
      -0.003358,
      -0.059628,
      -0.000069,
      0.014057,
      -0.029047,
      -0.024965,
      0.000044,
      0.004392,
      0.028204,
      0.028996,
      -0.012975,
      0.027904,
      -0.001524,
      0.009742,
      0.005463,
      0.030784,
      0.037769,
      0.006988,
      -0.024935,
      0.031557,
      0.023069,
      0.029431,
      0.033994,
      0.007211,
      0.019623,
      0.006395,
      0.004063,
      -0.003479,
      -0.017445,
      0.013538,
      -0.058642,
      0.034516,
      -0.003922,
      0.007182,
      0.039454,
      0.038512,
      0.040701,
      0.008608,
      -0.030616,
      -0.006066,
      0.014438,
      0.015662,
      -0.018869,
      0.006703,
      0.013661,
      0.003295,
      -0.016648,
      0.012121,
      0.000912,
      -0.021544,
      -0.039636,
      0.05492,
      0.03514,
      -0.003543,
      0.005499,
      -0.019471,
      0.010963,
      0.012216,
      -0.03543,
      0.006187,
      0.014263,
      -0.050879,
      0.009757,
      -0.028323,
      0.013222,
      -0.019489,
      -0.048404,
      0.002942,
      -0.002758,
      0.05996,
      0.004994,
      0.003213,
      0.011822,
      -0.003327,
      -0.017721,
      -0.021188,
      -0.010438,
      0.002758,
      0.024147,
      -0.022462,
      -0.011718,
      0.01561,
      -0.017346,
      -0.004698,
      -0.033772,
      -0.016133,
      0.023417,
      0.0356,
      0.018797,
      -0.00835,
      0.04475,
      -0.017888,
      -0.024193,
      -0.025901,
      0.03268,
      -0.02253,
      -0.008393,
      0.036528,
      -0.000001,
      -0.015371,
      -0.006706,
      0.01197,
      -0.022372,
      -0.05119,
      0.007895,
      0.011297,
      0.033585,
      -0.00771,
      -0.015557,
      -0.007767,
      -0.027625,
      -0.012148,
      -0.026526,
      0.015757,
      -0.038215,
      -0.010199,
      -0.013957,
      -0.016178,
      0.001652,
      0.026761,
      -0.018867,
      0.024027,
      0.014608,
      0.00303,
      0.0349,
      -0.007017,
      -0.024244,
      0.035905,
      0.047452,
      0.018183,
      -0.013051,
      -0.003946,
      -0.003726,
      -0.040954,
      -0.021313,
      -0.025307,
      -0.022352,
      0.025996,
      -0.008569,
      0.01577,
      -0.029465,
      0.011487,
      -0.021939,
      0.003434,
      0.029274,
      -0.012573,
      0.014932,
      0.035094,
      -0.018892,
      -0.014264,
      0.014363,
      0.08901,
      -0.031546,
      -0.028019,
      0.025384,
      0.004302,
      -0.124392,
      -0.024143,
      -0.035244,
      0.018999,
      0.016775,
      -0.019349,
      -0.005808,
      0.004814,
      -0.02159,
      -0.021757,
      -0.021128,
      -0.117886,
      -0.019844,
      -0.012685,
      -0.016647,
      -0.0055,
      0.016424,
      0.044414,
      -0.00322,
      -0.08239,
      0.01412,
      0.005996,
      0.025655,
      0.004068,
      0.014739,
      0.00483,
      0.000791,
      0.049116,
      -0.03282,
      0.010303,
      -0.010269,
      0.026735,
      -0.016982,
      -0.009849,
      0.029716,
      -0.012133,
      -0.006174,
      0.005019,
      0.024285,
      0.020694,
      0.045375,
      0.007015,
      0.01985,
      -0.012298,
      0.014998,
      -0.027959,
      0.008522,
      -0.007226,
      -0.038087,
      -0.004031,
      -0.008397,
      0.028354,
      -0.004886,
      0.007661,
      -0.001044,
      -0.010308,
      0.013723,
      0.035253,
      0.023173,
      0.010388,
      -0.039918,
      -0.006867,
      -0.024422,
      -0.02313,
      0.004334,
      -0.030087,
      -0.000128,
      -0.010615,
      -0.005604,
      -0.035462,
      -0.015057,
      -0.004003,
      -0.040255,
      -0.038452,
      0.002436,
      -0.000574,
      -0.020726,
      -0.02834,
      -0.015984,
      -0.081568,
      -0.014935,
      0.01342,
      -0.015771,
      0.040417,
      0.010434,
      0.011974,
      -0.010026,
      0.002637,
      0.013453,
      0.591532,
      -0.042421,
      0.019883,
      -0.012706,
      0.039903,
      -0.015185,
      -0.006099,
      0.006827,
      0.006963,
      -0.00239,
      -0.014554,
      0.001036,
      0.011068,
      0.003659,
      0.041841,
      0.00129,
      -0.014577,
      -0.033162,
      0.021753,
      -0.013872,
      -0.001171,
      -0.030476,
      0.049385,
      -0.017991,
      -0.038404,
      0.010468,
      -0.012962,
      0.016705,
      -0.004089,
      0.01041,
      -0.013371,
      -0.018098,
      -0.002035,
      -0.015493,
      0.006683,
      -0.011247,
      -0.058674,
      -0.028281,
      -0.000674,
      0.003969,
      -0.005374,
      -0.023266,
      0.00361,
      -0.022897,
      -0.056067,
      0.009703,
      0.004875,
      -0.01197,
      0.022332,
      -0.013493,
      0.037306,
      -0.006177,
      -0.020226,
      -0.001131,
      0.042181,
      -0.008129,
      -0.008941,
      0.020348,
      -0.025345,
      0.006184,
      0.035628,
      0.033981,
      -0.008283,
      0.045641,
      0.02847,
      0.00164,
      -0.026898,
      -0.03753,
      -0.015736,
      0.007533,
      0.045727,
      0.039069,
      -0.005127,
      -0.051366,
      -0.007819,
      -0.026807,
      0.026395,
      0.015414,
      0.0296,
      -0.0088,
      -0.030609,
      -0.009506,
      0.024447,
      0.022461,
      0.022992,
      -0.02562,
      -0.036036,
      0.024067,
      -0.010461,
      -0.039472,
      -0.008887,
      -0.023143,
      -0.036051,
      -0.000075,
      0.00869,
      -0.007695,
      0.005331,
      -0.038553,
      0.03045,
      -0.024936,
      0.026009,
      0.011051,
      0.014118,
      0.041835,
      -0.018473,
      -0.01273,
      -0.010705,
      -0.018227,
      0.022426,
      0.020894,
      -0.050174,
      0.004761,
      -0.004873,
      0.004836,
      0.039502,
      0.014879,
      0.019246,
      0.035271,
      -0.003632,
      -0.005652,
      -0.029092,
      -0.02112,
      -0.000269,
      -0.022049,
      -0.007868,
      -0.041216,
      -0.007647,
      -0.007065,
      -0.008745,
      0.03617,
      0.013253,
      0.036722,
      0.017028,
      -0.027913,
      0.001859,
      -0.05981,
      0.011047,
      0.01544,
      0.002658,
      0.010507,
      0.01065,
      -0.037007,
      -0.021262,
      0.019944,
      -0.013379,
      0.0086,
      0.003583,
      -0.00464,
      -0.01478,
      0.002714,
      0.030739,
      -0.028973,
      0.035938,
      0.025356,
      -0.029412,
      -0.006274,
      0.007569,
      0.000802,
      -0.047443,
      -0.005862,
      -0.018912,
      0.024983,
      0.000941,
      0.059081,
      0.00812,
      0.037731,
      0.021703,
      0.032627,
      -0.007045,
      -0.019534,
      0.005672,
      -0.015554,
      -0.003583,
      0.02615,
      0.012968,
      -0.000714,
      -0.017373,
      -0.016206,
      -0.009043,
      0.011779,
      0.016976,
      -0.004202,
      0.013688,
      0.072748,
      -0.059496,
      0.004243,
      -0.007912,
      0.020484,
      0.005811,
      -0.003691,
      0.024377,
      0.067399,
      0.01531,
      0.007551,
      0.006412,
      -0.028276,
      -0.009794,
      0.018412,
      0.013579,
      0.003357,
      0.033704,
      0.022348,
      0.020375,
      -0.012351,
      0.04322,
      0.027278,
      0.015007,
      0.030125,
      -0.023119,
      -0.023035,
      0.018006,
      -0.027386,
      0.010885,
      -0.022987,
      -0.02344,
      -0.034543,
      0.009386,
      0.022244,
      -0.003551,
      0.005894,
      -0.044777,
      -0.022297,
      0.01231,
      -0.022657,
      -0.025839,
      0.047962,
      -0.003567,
      -0.024191,
      -0.051148,
      -0.01202,
      -0.006177,
      -0.034931,
      -0.044343,
      -0.027527,
      0.010879,
      0.025264,
      0.000085,
      0.022028,
      -0.000695,
      0.021381,
      -0.003065,
      -0.020694,
      -0.006687,
      0.043728,
      0.016849,
      0.007398,
      0.000028,
      0.011725,
      0.021529,
      -0.004837,
      0.002947,
      0.00203,
      -0.074787,
      0.003444,
      0.033688,
      0.034548,
      -0.030202,
      -0.002085,
      0.006544,
      0.013546,
      0.003148,
      0.021449,
      0.002116,
      0.016513,
      -0.018571,
      -0.002468,
      -0.025306,
      -0.049999,
      0.007313,
      -0.025704,
      -0.016895,
      -0.02067,
      -0.029482,
      -0.021836,
      0.01463,
      -0.022703,
      0.007119,
      -0.028057,
      -0.024864,
      0.002121,
      -0.046201,
      0.004328,
      0.002359,
      -0.005537,
      -0.009917,
      -0.028853,
      -0.005178,
      0.004117,
      -0.014489,
      -0.0131,
      0.017952,
      -0.006664,
      -0.059469,
      -0.006951,
      -0.009082,
      0.040997,
      -0.033508,
      0.050222,
      0.011215,
      -0.02373,
      0.001817,
      0.001908,
      -0.01069,
      0.01251,
      -0.004946,
      0.025728,
      0.019539,
      0.014953,
      -0.005444,
      -0.01172,
      -0.012857,
      -0.035091,
      -0.020687,
      -0.017231,
      -0.003152,
      0.003597,
      -0.015817,
      0.008244,
      0.015656,
      -0.002768,
      0.014278,
      0.0083,
      -0.009575,
      -0.02843,
      -0.007987,
      0.011449,
      -0.035261,
      0.018703,
      -0.008801,
      -0.033071,
      -0.018051,
      -0.012076,
      -0.015781,
      -0.008613,
      0.012,
      -0.012496,
      0.034078,
      -0.005546,
      -0.004828,
      0.007369,
      -0.024927,
      -0.004971,
      0.020922,
      -0.004574,
      0.015712,
      0.016624,
      0.024351,
      0.003725,
      -0.009883,
      -0.007462,
      0.019962,
      0.009658,
      -0.016285,
      0.019282,
      0.002794,
      -0.01233,
      -0.01375,
      0.044889,
      0.030138,
      0.033213,
      -0.036097,
      0.044672,
      0.018457,
      0.018102,
      0.0148,
      0.022002,
      0.005862,
      -0.013026,
      0.025862,
      -0.015736,
      -0.000708,
      0.010177,
      -0.031789,
      -0.021425,
      -0.057862,
      -0.00535,
      0.036398,
      0.003243,
      0.013118,
      -0.034943,
      -0.008151,
      0.002568,
      0.007183,
      -0.030356,
      0.005501,
      0.006678,
      -0.029201,
      0.007196,
      0.006997,
      0.021262,
      0.005349,
      -0.001987,
      -0.015108,
      0.0255,
      -0.102358,
      0.032823,
      -0.021124,
      -0.048605,
      0.026326,
      -0.026696,
      -0.002749,
      -0.052091,
      -0.003593,
      -0.022741,
      0.059219,
      -0.018657,
      0.011139,
      -0.037177,
      -0.007176,
      0.004839,
      -0.058486,
      0.02953,
      0.034233,
      0.0261,
      0.002302,
      -0.00193,
      -0.011872,
      -0.043186,
      -0.013025,
      0.015226,
      -0.031886,
      0.013258,
      0.007644,
      -0.016692,
      0.029962,
      -0.005953,
      -0.039324,
      0.066903,
      -0.012851,
      0.017786,
      -0.036304,
      -0.024066,
      0.015092,
      0.05437,
      0.017826,
      -0.013928,
      -0.012935,
      -0.014548,
      -0.022664,
      -0.011349,
      -0.020004,
      -0.035325,
      0.002323,
      0.01403,
      -0.044782,
      -0.018288,
      -0.003564,
      -0.006554,
      0.004845,
      -0.006721,
      -0.040665,
      -0.018144,
      -0.004619,
      0.025495,
      -0.000704,
      0.009497,
      -0.019321,
      -0.040189,
      0.007219,
      -0.007361,
      -0.021385,
      -0.043232,
      -0.000825,
      -0.005212,
      0.006129,
      -0.023745,
      -0.013136,
      -0.037906,
      0.006135,
      -0.015961,
      0.016938,
      -0.043304,
      -0.005998,
      -0.012788,
      0.000289,
      0.005716,
      0.005164,
      0.063454,
      0.028856,
      -0.018772,
      -0.010291,
      -0.014863,
      -0.019412,
      -0.040801,
      -0.030737,
      0.030845,
      0.004603,
      0.011682,
      -0.019384,
      0.030202,
      -0.008485,
      -0.015774,
      -0.008717,
      0.007652,
      0.013563,
      0.026941,
      -0.010974,
      0.030298,
      0.027591,
      -0.00578,
      -0.02091,
      0.013324,
      -0.008026,
      -0.017563,
      0.018575,
      -0.0396,
      -0.020001,
      0.044543,
      -0.053367,
      0.022812,
      -0.000211,
      0.044038,
      0.021723,
      -0.019219,
      0.032901,
      -0.006013,
      0.013482,
      -0.063028,
      0.024943,
      -0.005629,
      -0.024251,
      -0.009942,
      0.010224,
      -0.023378,
      0.006594,
      -0.001976,
      -0.013687,
      0.024889,
      0.016709,
      -0.012357,
      -0.022671,
      0.083161,
      -0.01835,
      -0.018703,
      -0.001022,
      0.010875,
      -0.002082,
      -0.000078,
      -0.025061,
      -0.014766,
      -0.014323,
      -0.032224,
      -0.011992,
      0.019668,
      -0.010119,
      0.02615,
      0.023099,
      0.008893,
      0.001034,
      0.017028,
      -0.008549,
      -0.01603,
      -0.013967,
      0.072144,
      0.032491,
      -0.022025,
      -0.035162,
      0.001799,
      0.006327,
      0.024593,
      0.001416,
      -0.023991,
      0.020505,
      -0.021767,
      0.032425,
      0.019297,
      -0.018973,
      0.054167,
      0.01226,
      -0.052272,
      -0.001206,
      0.045661,
      0.023378,
      -0.01969,
      0.010786,
      -0.016741,
      0.009354,
      0.002447,
      0.027737,
      -0.019443,
      0.033644,
      -0.005497,
      -0.010939,
      0.011335,
      -0.015126,
      0.029054,
      0.036237,
      0.01309,
      0.005103,
      -0.024126,
      0.025334,
      -0.030363,
      -0.007231,
      0.036293,
      -0.053043,
      -0.01525,
      -0.023564,
      -0.008198,
      -0.007102,
      -0.021133,
      -0.02405,
      -0.00622,
      -0.003148,
      0.009448,
      0.011077,
      -0.001451,
      0.022603,
      0.02919,
      0.011625,
      0.01318,
      0.016407,
      0.024393,
      0.017197,
      0.022042,
      -0.000915,
      0.029694,
      -0.005369,
      -0.033962,
      0.010733,
      -0.035047,
      -0.000226,
      -0.015997,
      -0.000329,
      -0.009467,
      -0.000828,
      0.034717,
      -0.001442,
      0.026745,
      -0.009414,
      0.002076,
      -0.011796,
      0.049935,
      0.020625,
      0.000367,
      -0.022185,
      0.008886,
      -0.005449,
      0.02046
    ],
    "domain": [
      -0.012855,
      0.008509,
      0.016548,
      0.010696,
      0.004851,
      0.001056,
      -0.015066,
      0.012458,
      -0.013732,
      0.008688,
      0.011741,
      -0.009425,
      -0.011031,
      0.015674,
      0.015492,
      -0.004894,
      -0.0046,
      -0.012107,
      0.022274,
      -0.017759,
      0.011617,
      0.023557,
      -0.014738,
      -0.002168,
      -0.011046,
      0.052838,
      -0.022436,
      -0.002022,
      -0.022056,
      0.018091,
      0.009577,
      -0.01127,
      -0.007881,
      -0.035501,
      -0.034779,
      -0.036463,
      -0.016078,
      -0.013827,
      -0.035907,
      -0.020126,
      -0.042314,
      0.000311,
      -0.018941,
      -0.020962,
      0.039662,
      0.007868,
      -0.000402,
      -0.041884,
      -0.00222,
      -0.011941,
      0.008815,
      0.015514,
      0.021393,
      -0.025774,
      -0.002372,
      0.003537,
      -0.038007,
      0.003172,
      -0.041902,
      -0.005378,
      0.006007,
      0.001439,
      -0.010981,
      -0.01044,
      -0.004753,
      0.052547,
      0.009268,
      0.008413,
      0.018884,
      -0.045813,
      -0.013961,
      0.016554,
      -0.036324,
      -0.013394,
      -0.058314,
      0.034548,
      0.005526,
      -0.004276,
      0.011237,
      -0.013077,
      0.030236,
      -0.02081,
      0.019025,
      0.001872,
      -0.013152,
      0.026679,
      -0.015039,
      0.006257,
      0.027685,
      -0.011368,
      0.000995,
      0.012139,
      0.007819,
      -0.018161,
      0.013595,
      -0.025593,
      -0.016021,
      -0.004817,
      -0.01093,
      -0.000726,
      -0.01015,
      0.031809,
      0.00814,
      0.020698,
      0.040885,
      0.010738,
      0.009849,
      0.022174,
      0.0002,
      0.011911,
      0.025199,
      -0.000386,
      -0.012146,
      0.032829,
      0.008103,
      -0.01504,
      0.005727,
      -0.020528,
      0.047,
      0.016166,
      0.013477,
      0.055192,
      0.021501,
      -0.017707,
      0.006321,
      -0.003535,
      -0.006863,
      0.011136,
      -0.005713,
      -0.013266,
      -0.009016,
      0.022635,
      -0.019228,
      0.015996,
      -0.027918,
      -0.059788,
      0.012846,
      -0.056988,
      -0.010395,
      -0.034203,
      0.054258,
      0.046453,
      -0.005335,
      -0.041076,
      0.008899,
      0.01566,
      0.010972,
      0.010702,
      -0.005198,
      -0.000599,
      0.012965,
      0.015618,
      0.029523,
      0.005933,
      0.005775,
      -0.029439,
      0.008581,
      -0.004084,
      -0.01804,
      0.004848,
      0.013421,
      0.001919,
      0.013472,
      0.024861,
      0.010095,
      -0.002724,
      -0.01682,
      0.021591,
      0.004326,
      -0.008884,
      -0.022188,
      -0.026967,
      0.005699,
      -0.007132,
      0.033754,
      0.007103,
      0.058487,
      0.022061,
      0.013743,
      -0.035405,
      -0.000915,
      0.014809,
      0.000749,
      0.011757,
      -0.000643,
      -0.002576,
      0.016808,
      -0.00051,
      0.002322,
      0.00145,
      -0.01275,
      -0.020101,
      0.016417,
      0.033989,
      0.019301,
      -0.049638,
      -0.021859,
      -0.015267,
      0.00639,
      -0.027954,
      0.000751,
      0.017722,
      -0.024467,
      -0.014887,
      -0.002786,
      0.006056,
      0.017695,
      -0.018191,
      0.004096,
      0.003893,
      0.043,
      0.003682,
      -0.010532,
      0.010265,
      -0.028377,
      0.014541,
      -0.017751,
      0.00544,
      -0.021839,
      -0.044351,
      -0.003596,
      0.008593,
      0.019665,
      -0.010516,
      0.010857,
      0.015048,
      0.000736,
      0.035181,
      0.024599,
      0.00693,
      0.005355,
      -0.006682,
      -0.01539,
      -0.05748,
      0.030506,
      -0.011281,
      -0.015775,
      -0.037301,
      0.022637,
      0.025024,
      -0.001996,
      -0.021165,
      -0.020343,
      0.000356,
      -0.034695,
      -0.006882,
      0.00028,
      0.031125,
      -0.016128,
      -0.017417,
      0.006123,
      0.009613,
      0.011612,
      -0.018956,
      0.001748,
      0.005257,
      -0.031101,
      -0.013362,
      -0.032169,
      0.024125,
      0.030268,
      0.026678,
      0.008408,
      -0.000379,
      -0.001578,
      -0.004767,
      -0.007938,
      -0.038761,
      0.001624,
      0.005811,
      -0.016209,
      -0.018231,
      0.007047,
      0.005611,
      0.021851,
      -0.005245,
      -0.010793,
      -0.015155,
      0.00222,
      0.014589,
      0.007054,
      -0.000125,
      -0.026149,
      0.029649,
      0.015137,
      0.023468,
      -0.005984,
      -0.009125,
      0.028331,
      -0.007287,
      -0.004646,
      -0.004121,
      0.096598,
      -0.015028,
      0.020911,
      0.006876,
      0.013003,
      -0.074554,
      -0.00264,
      -0.022936,
      -0.001867,
      0.040546,
      0.004132,
      -0.015172,
      0.007047,
      0.002456,
      -0.018599,
      -0.018489,
      -0.053054,
      -0.028891,
      -0.025659,
      -0.008942,
      0.01038,
      -0.007844,
      0.021411,
      -0.000325,
      -0.066605,
      0.016052,
      0.000289,
      0.033121,
      -0.001713,
      0.024588,
      -0.034029,
      0.013323,
      -0.023055,
      -0.025961,
      -0.021714,
      -0.02005,
      -0.004669,
      0.003929,
      0.017634,
      0.03704,
      -0.019761,
      -0.003708,
      0.019748,
      -0.024351,
      -0.003266,
      0.021363,
      0.007857,
      -0.017999,
      0.016461,
      0.020287,
      -0.008884,
      -0.00155,
      0.021362,
      -0.056899,
      0.010466,
      -0.028677,
      -0.041395,
      0.018869,
      0.003506,
      -0.006539,
      -0.012843,
      0.011663,
      0.058814,
      0.04844,
      -0.016163,
      -0.030107,
      0.000553,
      -0.030335,
      -0.02084,
      0.00729,
      -0.014427,
      0.012942,
      0.002227,
      0.010931,
      0.000772,
      0.030059,
      -0.015822,
      -0.006313,
      -0.036991,
      -0.024041,
      0.025473,
      -0.000197,
      -0.041229,
      0.004039,
      -0.078301,
      -0.017621,
      -0.004832,
      0.002843,
      0.029291,
      -0.039674,
      -0.00381,
      -0.007382,
      -0.011637,
      0.012168,
      0.73339,
      -0.002423,
      -0.016079,
      0.000513,
      0.011035,
      0.023122,
      -0.018203,
      0.000438,
      0.022763,
      -0.01382,
      0.005829,
      0.031841,
      0.01985,
      0.012027,
      0.031767,
      0.017983,
      -0.027343,
      -0.031484,
      0.023253,
      -0.007332,
      -0.004689,
      -0.009057,
      -0.001745,
      0.01614,
      -0.021301,
      0.009235,
      0.006464,
      0.005097,
      -0.029579,
      0.022581,
      -0.030967,
      0.013792,
      0.018033,
      -0.016749,
      -0.013015,
      -0.028008,
      -0.022767,
      -0.014718,
      -0.001292,
      0.004119,
      -0.014426,
      -0.024076,
      -0.017448,
      0.006308,
      0.001666,
      0.033027,
      0.000781,
      0.002908,
      0.02152,
      -0.009533,
      0.012976,
      -0.006222,
      -0.013854,
      0.004416,
      0.019497,
      0.011955,
      -0.014771,
      0.015896,
      0.017074,
      -0.000542,
      0.015108,
      0.021228,
      -0.026577,
      -0.000559,
      0.011764,
      -0.019341,
      -0.00254,
      -0.039884,
      0.010969,
      0.046206,
      -0.015176,
      0.03965,
      0.006088,
      -0.031909,
      0.000244,
      -0.012873,
      0.006042,
      -0.012141,
      0.02699,
      -0.009227,
      -0.012818,
      -0.021915,
      0.001252,
      -0.006911,
      0.011927,
      -0.036804,
      -0.018301,
      0.023116,
      -0.014186,
      -0.039354,
      -0.023632,
      -0.018734,
      0.011501,
      -0.010528,
      -0.031221,
      -0.008028,
      0.010415,
      0.006989,
      -0.023748,
      -0.017327,
      0.018681,
      -0.003514,
      0.008499,
      0.005883,
      0.00363,
      -0.024614,
      0.005759,
      0.010049,
      -0.01464,
      0.008696,
      -0.024297,
      0.020768,
      -0.024084,
      -0.001891,
      0.010846,
      -0.004901,
      0.023661,
      0.003436,
      0.018268,
      0.005811,
      -0.021686,
      0.015534,
      -0.015299,
      -0.027701,
      -0.004581,
      -0.058746,
      0.005602,
      0.021322,
      -0.016176,
      -0.002845,
      0.007821,
      0.008134,
      -0.008245,
      0.004143,
      0.010545,
      -0.027396,
      -0.019117,
      -0.00856,
      0.002841,
      0.010408,
      -0.009596,
      0.002426,
      -0.017366,
      -0.010608,
      -0.010737,
      0.05403,
      -0.025091,
      0.012834,
      -0.023432,
      -0.002938,
      0.018923,
      -0.011719,
      0.031849,
      -0.030331,
      -0.002137,
      -0.027877,
      -0.004939,
      0.009371,
      0.011611,
      -0.009336,
      0.006123,
      0.013292,
      0.013276,
      0.060044,
      -0.038488,
      0.015245,
      -0.012166,
      0.033846,
      -0.004462,
      0.002122,
      0.003044,
      -0.046236,
      -0.002658,
      0.044683,
      0.000586,
      -0.016164,
      -0.027761,
      0.009725,
      -0.037599,
      -0.010464,
      0.013132,
      0.011016,
      0.002082,
      0.029206,
      -0.005901,
      0.001954,
      0.013814,
      0.010836,
      0.052789,
      -0.049966,
      0.026776,
      0.049559,
      -0.014242,
      0.005023,
      -0.01267,
      0.008024,
      0.010162,
      0.003588,
      -0.025287,
      -0.01948,
      -0.014285,
      -0.005391,
      0.015537,
      0.01379,
      0.022528,
      -0.013591,
      -0.032576,
      0.010253,
      -0.023141,
      -0.001931,
      -0.015465,
      -0.01105,
      -0.016063,
      -0.00022,
      -0.021208,
      -0.020741,
      0.00108,
      0.004346,
      -0.019527,
      0.014963,
      -0.009632,
      -0.004522,
      -0.008433,
      -0.038509,
      0.012694,
      0.02511,
      0.013741,
      -0.02138,
      -0.00523,
      0.041027,
      -0.006999,
      -0.031776,
      -0.000641,
      0.00563,
      -0.014472,
      -0.010266,
      -0.019838,
      0.010425,
      0.02354,
      -0.033267,
      -0.024138,
      -0.00406,
      0.024055,
      0.025722,
      0.012024,
      -0.021795,
      -0.016503,
      -0.013147,
      -0.00003,
      0.023048,
      -0.030133,
      -0.008425,
      -0.008658,
      0.007567,
      0.008433,
      -0.030298,
      0.013143,
      -0.010779,
      -0.022875,
      -0.011004,
      0.021735,
      0.005491,
      0.014408,
      -0.003519,
      -0.010663,
      -0.002415,
      0.007609,
      -0.029275,
      -0.03119,
      -0.018132,
      0.006205,
      -0.009298,
      -0.019003,
      -0.010803,
      0.017147,
      -0.000477,
      -0.017261,
      0.001302,
      0.00201,
      0.008829,
      -0.033114,
      0.011724,
      0.003355,
      0.049376,
      0.006355,
      -0.018808,
      0.007033,
      0.011572,
      -0.003412,
      -0.014875,
      -0.016052,
      -0.005134,
      -0.055675,
      -0.004545,
      -0.013441,
      0.000007,
      -0.007666,
      0.039032,
      -0.007994,
      -0.031626,
      -0.013117,
      0.012677,
      0.012114,
      -0.005857,
      -0.009801,
      0.016641,
      0.000287,
      0.030259,
      -0.018727,
      -0.005829,
      -0.034008,
      0.010825,
      0.010825,
      0.014718,
      -0.020732,
      0.007516,
      -0.00279,
      0.004406,
      0.01115,
      0.002326,
      0.042018,
      0.008468,
      -0.032142,
      -0.020273,
      -0.009165,
      0.009178,
      -0.040763,
      0.004145,
      -0.000938,
      -0.029405,
      -0.010078,
      -0.024211,
      0.028956,
      0.006334,
      -0.015953,
      0.016459,
      0.035442,
      -0.032708,
      -0.003968,
      -0.001465,
      0.008056,
      0.013607,
      0.044374,
      -0.023912,
      0.026772,
      0.010528,
      -0.019794,
      -0.004389,
      -0.022396,
      -0.02559,
      -0.008112,
      -0.003129,
      -0.03263,
      0.002529,
      0.010114,
      0.033216,
      -0.021925,
      -0.011959,
      -0.002897,
      -0.023704,
      -0.027934,
      0.021995,
      0.004128,
      0.016082,
      0.024358,
      0.007045,
      -0.009973,
      -0.017293,
      0.031445,
      0.017808,
      -0.001439,
      0.002923,
      -0.009998,
      -0.008696,
      -0.044154,
      0.013193,
      0.003734,
      0.023708,
      0.00912,
      -0.021577,
      -0.013334,
      -0.002693,
      -0.012449,
      -0.027063,
      0.0233,
      -0.042216,
      -0.033756,
      -0.002111,
      0.017015,
      0.037649,
      -0.002223,
      -0.027016,
      -0.011452,
      -0.01926,
      -0.068553,
      -0.007533,
      -0.000531,
      -0.017763,
      0.008744,
      0.017157,
      0.009388,
      -0.018682,
      -0.009502,
      -0.011206,
      0.004911,
      0.017597,
      0.016859,
      -0.046478,
      0.019461,
      -0.020448,
      -0.019112,
      -0.005094,
      0.000632,
      0.042468,
      -0.014629,
      -0.006164,
      0.04687,
      -0.012388,
      0.027077,
      -0.010829,
      -0.013734,
      0.031144,
      -0.012219,
      -0.035518,
      0.010745,
      -0.008195,
      0.010105,
      0.014951,
      -0.002214,
      -0.020148,
      -0.028489,
      -0.025378,
      0.001274,
      0.013351,
      0.006378,
      -0.003153,
      0.002843,
      -0.010302,
      -0.017683,
      0.050008,
      -0.00905,
      -0.025955,
      -0.022084,
      -0.015,
      0.012077,
      0.00482,
      -0.005665,
      0.001052,
      0.011652,
      -0.012036,
      -0.011774,
      -0.00545,
      0.025624,
      0.062109,
      -0.02597,
      0.030317,
      0.010229,
      0.01444,
      0.014899,
      -0.011201,
      -0.019758,
      -0.013704,
      0.001505,
      -0.011055,
      0.025623,
      -0.013219,
      -0.012599,
      -0.022446,
      0.022037,
      0.006381,
      0.022356,
      -0.023002,
      -0.01291,
      -0.042959,
      0.01153,
      -0.0226,
      -0.013389,
      0.022139,
      0.008997,
      0.016022,
      0.017207,
      -0.014128,
      -0.044852,
      -0.000195,
      -0.0356,
      -0.007797,
      0.013395,
      -0.007223,
      -0.009043,
      -0.012544,
      -0.034774,
      0.04231,
      0.011851,
      0.024982,
      -0.008279,
      0.013809,
      0.028531,
      -0.01897,
      -0.034525,
      0.001646,
      0.041387,
      0.011243,
      -0.007831,
      -0.024195,
      -0.023423,
      -0.03998,
      0.022827,
      0.042605,
      -0.001322,
      0.001112,
      0.005864,
      0.02674,
      0.012156,
      0.016822,
      -0.009529,
      0.02992,
      0.009986,
      -0.059298,
      -0.004532,
      0.015925,
      0.016599,
      0.011381,
      -0.01035,
      0.003396,
      0.014214,
      -0.00274,
      0.019991,
      0.027303,
      0.03535,
      -0.031246,
      0.013053,
      0.042616,
      -0.033927,
      -0.008814,
      -0.024099,
      0.002598,
      0.01805,
      -0.013433,
      -0.01844,
      0.01138,
      -0.012362,
      0.00958,
      0.003084,
      -0.015384,
      0.01793,
      -0.003807,
      -0.010024,
      0.00329,
      -0.003164,
      -0.004438,
      -0.021187,
      0.001585,
      -0.030133,
      0.05091,
      0.000755,
      -0.038824,
      -0.03055,
      -0.014035,
      -0.013419,
      0.01271,
      0.002136,
      -0.004267,
      -0.032107,
      -0.004081,
      -0.020645,
      0.01455,
      -0.030471,
      0.017353,
      0.00749,
      -0.025063,
      -0.006317,
      0.030978,
      0.00973,
      -0.027927,
      0.022214,
      -0.029916,
      0.00541,
      0.016236,
      -0.019966,
      -0.014747,
      0.041429,
      0.039029,
      0.015107,
      -0.015083,
      0.005661,
      0.00263,
      -0.005423,
      -0.01755,
      0.030447,
      0.020233,
      0.004959,
      -0.026401,
      -0.008974,
      0.009847,
      -0.029561,
      0.013205,
      -0.017484,
      -0.028749,
      -0.034141,
      -0.005577,
      -0.007803,
      -0.036017,
      -0.032111,
      -0.030727,
      0.013442,
      -0.000609,
      -0.001101,
      -0.019044,
      0.019874,
      0.004669,
      0.00704,
      0.018741,
      0.016549,
      0.003579,
      0.018554,
      0.007346,
      -0.004197,
      -0.043831,
      -0.014531,
      -0.026108,
      0.021705,
      0.015084,
      -0.018995,
      0.004316,
      -0.013095,
      0.009526,
      0.014695,
      -0.021318,
      -0.009928,
      -0.001886,
      0.003026,
      0.011784,
      -0.042222,
      -0.014269,
      0.01815,
      -0.009806,
      0.013186,
      0.00323
    ],
    "execution_style": [
      -0.02116,
      -0.037453,
      -0.021081,
      0.008982,
      0.011157,
      -0.019367,
      0.001214,
      0.017284,
      -0.018749,
      0.009141,
      -0.010833,
      -0.001859,
      -0.008906,
      0.001094,
      -0.014541,
      -0.015758,
      -0.01834,
      -0.032349,
      0.024026,
      -0.009255,
      -0.033464,
      0.002569,
      0.004681,
      0.007189,
      0.005171,
      0.065117,
      -0.006514,
      0.00422,
      -0.009171,
      0.026027,
      0.033136,
      -0.005639,
      0.009719,
      -0.008028,
      -0.014257,
      -0.038725,
      -0.009384,
      -0.000236,
      -0.046134,
      -0.020437,
      -0.029521,
      -0.005569,
      -0.032154,
      -0.021789,
      0.027883,
      0.002501,
      0.010231,
      -0.047759,
      -0.047075,
      -0.011585,
      -0.001763,
      0.003585,
      0.056701,
      -0.027864,
      -0.000917,
      0.01732,
      -0.009938,
      -0.016116,
      -0.024625,
      0.002239,
      0.001114,
      0.006464,
      -0.022769,
      -0.028741,
      -0.019991,
      0.044016,
      -0.003025,
      -0.008174,
      0.035515,
      -0.03441,
      -0.021865,
      0.007024,
      -0.029966,
      -0.021509,
      -0.049703,
      -0.010454,
      -0.003617,
      -0.035432,
      0.024687,
      -0.01003,
      0.029675,
      0.011016,
      0.016033,
      -0.007749,
      0.003897,
      0.022402,
      -0.038071,
      -0.006806,
      0.013632,
      -0.020722,
      -0.006197,
      0.020935,
      -0.00201,
      -0.017952,
      0.014223,
      0.013603,
      -0.014906,
      -0.008504,
      -0.013594,
      -0.013612,
      -0.004329,
      -0.006696,
      -0.01637,
      0.001696,
      0.045533,
      0.015051,
      0.021335,
      0.050869,
      0.008814,
      0.00929,
      0.013812,
      0.005484,
      -0.004023,
      0.009838,
      -0.001732,
      -0.009294,
      -0.006401,
      0.007447,
      0.027536,
      -0.002051,
      0.026129,
      0.059898,
      0.052493,
      -0.011251,
      -0.024716,
      0.014264,
      -0.006553,
      0.011828,
      -0.021659,
      -0.001862,
      0.004734,
      0.001135,
      -0.007394,
      0.011174,
      0.015166,
      -0.028195,
      0.027114,
      0.012995,
      -0.020041,
      -0.01865,
      0.022823,
      0.019196,
      -0.032073,
      -0.018235,
      0.022015,
      -0.003971,
      0.012503,
      0.004265,
      0.000801,
      -0.021227,
      0.013452,
      0.012157,
      0.011701,
      0.016577,
      -0.006183,
      -0.028431,
      0.038838,
      0.048719,
      -0.02033,
      0.010599,
      0.009123,
      -0.001464,
      0.013016,
      0.030156,
      0.002546,
      -0.002185,
      0.004774,
      0.020487,
      -0.004068,
      -0.026041,
      -0.019445,
      -0.028787,
      0.021991,
      -0.013699,
      0.015372,
      0.019466,
      0.058371,
      0.017537,
      0.0175,
      -0.037007,
      -0.031376,
      0.02729,
      -0.015216,
      0.022311,
      0.00422,
      -0.007147,
      0.039309,
      -0.017574,
      0.00304,
      0.006004,
      -0.011518,
      -0.033254,
      0.010085,
      0.002417,
      0.016971,
      0.007507,
      0.008506,
      0.009429,
      0.033167,
      -0.031614,
      0.00724,
      -0.003849,
      -0.016548,
      -0.008133,
      -0.020365,
      -0.006681,
      -0.035553,
      -0.025525,
      0.004095,
      -0.010567,
      0.025346,
      -0.011851,
      -0.011869,
      0.022334,
      -0.014765,
      0.005985,
      -0.009366,
      -0.009744,
      -0.023584,
      0.00905,
      -0.007329,
      0.009772,
      0.001899,
      -0.002102,
      -0.015668,
      0.003459,
      -0.019146,
      0.031588,
      0.003694,
      0.007831,
      0.011413,
      0.011917,
      -0.011165,
      -0.015067,
      0.011332,
      0.020322,
      -0.040209,
      -0.019706,
      0.006655,
      0.013289,
      -0.017872,
      -0.008043,
      0.02562,
      -0.021007,
      -0.039803,
      -0.002942,
      -0.005898,
      0.010571,
      0.023688,
      -0.024076,
      -0.019068,
      -0.004775,
      -0.007957,
      -0.008358,
      0.013777,
      0.022039,
      0.001317,
      -0.009005,
      -0.015986,
      0.019461,
      0.042754,
      -0.005474,
      -0.013502,
      0.009609,
      0.002928,
      -0.023135,
      -0.001222,
      -0.015375,
      0.038237,
      0.022466,
      -0.009944,
      -0.028595,
      -0.00901,
      -0.001357,
      -0.013599,
      0.01004,
      -0.005691,
      -0.042475,
      0.022783,
      0.002167,
      0.026809,
      -0.000487,
      -0.013061,
      -0.003813,
      -0.000136,
      0.005773,
      -0.034725,
      -0.016119,
      0.030261,
      -0.016653,
      -0.01801,
      0.027549,
      0.107213,
      0.022969,
      -0.006983,
      0.00109,
      -0.002095,
      -0.036266,
      -0.016446,
      -0.0052,
      -0.00304,
      0.033544,
      -0.023863,
      -0.022111,
      -0.004931,
      -0.039559,
      -0.025611,
      0.002647,
      -0.04801,
      -0.01547,
      -0.012896,
      -0.032707,
      -0.010991,
      -0.005496,
      0.013607,
      -0.007311,
      -0.070119,
      -0.015038,
      -0.012641,
      0.022871,
      -0.002904,
      0.007642,
      -0.004165,
      -0.001956,
      -0.010394,
      -0.025317,
      -0.012965,
      -0.002149,
      0.009812,
      -0.004692,
      -0.012674,
      0.017505,
      -0.016549,
      0.021217,
      -0.001082,
      0.004119,
      0.007608,
      0.039844,
      -0.017316,
      0.000478,
      -0.009266,
      0.008219,
      -0.010131,
      -0.002532,
      0.011627,
      -0.047113,
      0.006533,
      -0.013218,
      -0.018551,
      -0.004204,
      0.008327,
      -0.035852,
      0.007473,
      -0.003736,
      0.051133,
      0.008089,
      -0.020917,
      -0.016236,
      -0.022716,
      -0.015062,
      -0.00771,
      -0.001308,
      -0.036551,
      0.001482,
      0.010434,
      0.005467,
      0.027347,
      0.003531,
      -0.001977,
      -0.024041,
      -0.032693,
      -0.016019,
      0.01833,
      -0.016199,
      -0.02476,
      -0.002471,
      -0.076168,
      0.021082,
      0.000609,
      -0.019037,
      0.051271,
      -0.027145,
      0.003392,
      -0.005448,
      0.004373,
      0.049139,
      0.742133,
      -0.0182,
      0.01035,
      0.014111,
      0.01089,
      -0.000295,
      0.001264,
      -0.012034,
      -0.025179,
      -0.031544,
      -0.00586,
      0.020539,
      0.034055,
      -0.008851,
      0.022579,
      -0.015428,
      -0.013886,
      -0.013411,
      0.053972,
      -0.00594,
      -0.009327,
      -0.018581,
      0.015252,
      0.001643,
      -0.034792,
      0.010029,
      -0.013173,
      0.010572,
      -0.00441,
      0.015291,
      -0.038531,
      -0.005146,
      0.030516,
      0.004161,
      0.000664,
      -0.023049,
      -0.030722,
      -0.013783,
      0.012225,
      0.010742,
      -0.046732,
      -0.014148,
      0.000888,
      -0.03292,
      0.00384,
      -0.016469,
      0.016061,
      0.02174,
      0.004961,
      0.002476,
      0.007049,
      -0.015767,
      -0.053863,
      0.002148,
      0.024586,
      -0.00408,
      -0.017585,
      0.007085,
      0.021795,
      0.017251,
      0.008264,
      0.041052,
      0.009106,
      -0.018127,
      0.008862,
      0.033491,
      -0.009506,
      -0.039986,
      -0.003895,
      0.030116,
      -0.00071,
      0.033624,
      -0.008392,
      -0.018228,
      -0.012933,
      0.012775,
      0.03648,
      0.003602,
      0.016283,
      -0.007943,
      -0.000314,
      0.015461,
      0.014444,
      0.035213,
      0.014178,
      -0.020477,
      -0.015013,
      0.035049,
      -0.002109,
      -0.026629,
      -0.000025,
      -0.006448,
      -0.000172,
      0.015368,
      -0.00969,
      -0.009338,
      0.020821,
      0.012403,
      -0.006328,
      -0.011782,
      0.003915,
      -0.005974,
      -0.003745,
      0.026461,
      -0.011674,
      0.015221,
      -0.002625,
      -0.013399,
      0.019399,
      -0.013577,
      -0.01706,
      0.028613,
      0.008268,
      0.015418,
      -0.00125,
      0.007307,
      0.001831,
      0.049658,
      0.005937,
      0.015504,
      -0.002255,
      -0.011179,
      0.017956,
      -0.027012,
      -0.041461,
      -0.056658,
      0.01568,
      -0.000425,
      -0.018128,
      0.015048,
      0.000142,
      0.00745,
      0.001436,
      0.008643,
      0.014044,
      -0.018855,
      0.003911,
      0.010563,
      -0.015576,
      0.032638,
      -0.000591,
      -0.009522,
      -0.014025,
      -0.012184,
      -0.022026,
      0.041417,
      -0.002058,
      0.001272,
      -0.029254,
      -0.008016,
      0.030989,
      0.000301,
      0.016839,
      0.004221,
      -0.017855,
      -0.032538,
      0.015651,
      -0.004009,
      -0.008517,
      0.014752,
      -0.021539,
      0.014163,
      -0.005096,
      0.055943,
      -0.033337,
      -0.007947,
      0.021532,
      0.030342,
      -0.031296,
      -0.000294,
      0.0029,
      -0.018025,
      -0.016404,
      0.014089,
      -0.003154,
      -0.00755,
      -0.035847,
      -0.007093,
      -0.00563,
      -0.001555,
      0.0304,
      -0.015646,
      -0.028328,
      0.026562,
      0.001831,
      0.004539,
      -0.03263,
      0.012515,
      0.020275,
      -0.03308,
      -0.009881,
      0.06401,
      -0.001072,
      -0.001317,
      0.006747,
      -0.006195,
      -0.024501,
      0.009376,
      -0.010122,
      -0.020502,
      0.015667,
      -0.004249,
      0.008422,
      -0.035514,
      0.021875,
      0.001989,
      -0.004125,
      0.013603,
      -0.039419,
      -0.034242,
      -0.004869,
      -0.010421,
      -0.00478,
      -0.015307,
      -0.002027,
      -0.024546,
      0.005889,
      0.029739,
      -0.015364,
      -0.009072,
      0.00866,
      -0.009801,
      0.023272,
      -0.020568,
      -0.02378,
      -0.010948,
      0.025512,
      -0.027751,
      -0.030028,
      -0.007981,
      -0.0011,
      -0.025651,
      0.011842,
      -0.006758,
      0.024161,
      -0.015992,
      0.003431,
      0.0118,
      0.014729,
      0.007542,
      0.010681,
      -0.02528,
      0.002948,
      0.033113,
      0.011814,
      -0.02015,
      -0.027397,
      -0.022492,
      0.028221,
      0.003151,
      -0.020402,
      0.009022,
      -0.02822,
      -0.020839,
      -0.005261,
      0.022944,
      0.013643,
      0.018219,
      -0.02291,
      -0.011043,
      0.014921,
      0.011066,
      0.005,
      0.016004,
      0.000383,
      -0.029749,
      -0.004603,
      -0.031306,
      -0.00845,
      -0.040446,
      -0.020668,
      -0.010405,
      -0.000253,
      -0.031078,
      0.035872,
      -0.024659,
      0.012696,
      0.00788,
      -0.028099,
      -0.025911,
      -0.012574,
      -0.00139,
      -0.013645,
      0.015495,
      -0.011269,
      -0.036801,
      0.031559,
      0.016138,
      -0.005664,
      -0.034146,
      0.008961,
      0.010872,
      -0.058773,
      0.005998,
      -0.012886,
      0.014292,
      -0.024477,
      0.049822,
      -0.01212,
      0.013304,
      -0.004993,
      0.024108,
      -0.017308,
      0.011273,
      -0.024346,
      -0.006727,
      0.010325,
      -0.006685,
      -0.019161,
      0.022536,
      -0.009581,
      -0.03202,
      -0.011224,
      0.015223,
      -0.006062,
      -0.013671,
      -0.000041,
      0.010887,
      0.004721,
      0.014298,
      0.010429,
      -0.006086,
      -0.010092,
      0.002296,
      -0.001689,
      0.008389,
      -0.015884,
      0.005448,
      0.009949,
      -0.01476,
      0.000658,
      0.010933,
      0.003594,
      -0.005161,
      0.001324,
      -0.002392,
      0.041126,
      -0.014155,
      -0.010201,
      -0.019622,
      0.00195,
      0.006394,
      0.029983,
      0.006825,
      0.01065,
      -0.01897,
      -0.019048,
      0.004629,
      -0.015157,
      -0.022144,
      0.012061,
      -0.03725,
      -0.027496,
      -0.028934,
      0.031288,
      0.004229,
      -0.001662,
      0.01773,
      0.031796,
      -0.029814,
      -0.042641,
      0.021896,
      -0.027855,
      0.003528,
      0.021317,
      -0.009401,
      0.011422,
      0.007635,
      0.026175,
      0.010419,
      0.027273,
      -0.010589,
      -0.004816,
      -0.030509,
      -0.035186,
      -0.004508,
      0.013779,
      0.013902,
      0.016481,
      -0.020385,
      -0.013096,
      0.022821,
      -0.02115,
      -0.026892,
      0.034778,
      -0.001912,
      -0.001692,
      0.014902,
      0.008021,
      0.023981,
      0.007642,
      -0.011842,
      -0.022032,
      -0.0271,
      -0.075578,
      0.016184,
      -0.014249,
      -0.006291,
      0.005096,
      -0.010531,
      0.004292,
      -0.046366,
      -0.038623,
      -0.000977,
      0.001968,
      -0.007515,
      0.034377,
      -0.028998,
      0.011162,
      -0.00432,
      -0.048462,
      -0.000406,
      0.01114,
      0.026862,
      -0.010564,
      0.000216,
      -0.003724,
      0.004324,
      -0.024986,
      -0.02831,
      -0.004511,
      0.018063,
      -0.006098,
      -0.029233,
      0.021165,
      -0.000499,
      -0.018913,
      0.038379,
      -0.001916,
      -0.020653,
      -0.016401,
      -0.011727,
      -0.035126,
      0.009869,
      0.009762,
      -0.009518,
      0.005965,
      -0.010547,
      0.017116,
      0.036023,
      -0.009502,
      -0.030065,
      -0.020798,
      -0.003195,
      -0.015564,
      0.012745,
      0.009031,
      0.002881,
      0.009326,
      -0.025534,
      -0.011225,
      0.024781,
      0.013931,
      0.036624,
      -0.012094,
      0.01603,
      -0.016353,
      -0.046002,
      0.007952,
      -0.027351,
      -0.022778,
      -0.023069,
      0.002372,
      -0.006859,
      -0.00331,
      0.006059,
      0.017182,
      -0.038059,
      0.030433,
      0.003913,
      0.010225,
      -0.020016,
      -0.00255,
      -0.047247,
      0.020353,
      -0.017435,
      -0.00542,
      0.02364,
      0.02492,
      0.00936,
      0.001525,
      -0.007371,
      -0.01938,
      -0.027197,
      -0.039501,
      -0.010213,
      -0.001425,
      0.003821,
      -0.009027,
      0.010658,
      -0.023726,
      0.012755,
      -0.003021,
      0.000561,
      0.018124,
      0.035819,
      0.031161,
      0.02166,
      0.001749,
      0.011854,
      0.002679,
      0.039705,
      0.005253,
      0.004425,
      -0.024431,
      -0.002904,
      -0.014833,
      0.016884,
      -0.009644,
      -0.006899,
      -0.01909,
      0.027292,
      0.022948,
      -0.016468,
      -0.017778,
      -0.00178,
      0.010793,
      -0.045825,
      -0.025085,
      0.004247,
      0.02821,
      0.00792,
      0.005217,
      -0.006813,
      0.031325,
      -0.021934,
      0.004097,
      0.023218,
      0.047927,
      -0.000985,
      -0.022882,
      0.060984,
      -0.010157,
      -0.001341,
      0.000682,
      -0.012257,
      0.026133,
      -0.023613,
      -0.01364,
      0.020442,
      -0.003813,
      0.004497,
      -0.027791,
      -0.007346,
      -0.002397,
      0.013975,
      0.013969,
      0.007066,
      -0.017263,
      -0.018358,
      0.00912,
      0.011036,
      0.003054,
      0.043148,
      -0.000423,
      -0.029845,
      -0.026477,
      0.009467,
      0.017869,
      0.034892,
      0.010639,
      -0.009894,
      -0.024113,
      0.00748,
      0.005125,
      -0.045316,
      -0.016765,
      0.036543,
      -0.019562,
      -0.038177,
      0.002492,
      0.02235,
      -0.002947,
      -0.019074,
      0.013997,
      -0.015258,
      0.029403,
      0.016701,
      -0.000939,
      0.013404,
      0.025239,
      0.007306,
      -0.01933,
      -0.021548,
      -0.007884,
      -0.008519,
      0.017238,
      -0.007823,
      0.027362,
      0.000237,
      0.0108,
      0.006956,
      0.000574,
      0.00918,
      -0.041048,
      -0.016265,
      -0.01023,
      -0.026104,
      -0.027488,
      0.007723,
      -0.024601,
      -0.011853,
      -0.028895,
      0.024737,
      0.00648,
      0.016971,
      -0.016245,
      0.014111,
      0.002051,
      0.019354,
      0.027753,
      0.027163,
      0.023662,
      0.029427,
      -0.0177,
      0.023885,
      -0.004571,
      -0.03816,
      -0.016677,
      -0.022229,
      0.012972,
      -0.025434,
      -0.0188,
      0.006891,
      -0.024803,
      0.003657,
      0.024751,
      0.001986,
      -0.027122,
      0.002327,
      -0.021561,
      0.025596,
      -0.030547,
      -0.029592,
      -0.000909,
      -0.014957,
      -0.014198,
      -0.013786
    ],
    "trust_signals": [
      -0.001266,
      -0.014967,
      -0.024473,
      -0.019028,
      0.00407,
      -0.015259,
      0.024466,
      0.014344,
      -0.007427,
      0.011036,
      0.005057,
      -0.031137,
      -0.0183,
      0.023654,
      0.021431,
      0.014878,
      -0.014555,
      -0.026783,
      0.015984,
      0.01377,
      -0.03452,
      0.033235,
      0.009933,
      -0.002357,
      0.010724,
      0.060716,
      -0.004645,
      -0.014655,
      -0.030472,
      0.016339,
      0.04388,
      0.010273,
      -0.000922,
      -0.025783,
      -0.04024,
      -0.025506,
      -0.00676,
      -0.019957,
      -0.068984,
      -0.009416,
      -0.020246,
      -0.025782,
      -0.026352,
      -0.022689,
      0.027818,
      -0.014608,
      0.024518,
      -0.058149,
      -0.015471,
      -0.012357,
      -0.0009,
      -0.020713,
      0.026132,
      -0.010008,
      -0.013263,
      0.025133,
      -0.009617,
      -0.015093,
      -0.031567,
      0.005886,
      0.005479,
      0.003527,
      -0.023248,
      -0.034837,
      -0.020086,
      0.044609,
      -0.005808,
      0.015557,
      0.043177,
      -0.030757,
      -0.011768,
      0.012972,
      -0.035156,
      -0.0454,
      -0.025529,
      -0.014126,
      0.005775,
      -0.029344,
      0.011157,
      -0.015845,
      0.050684,
      0.004536,
      -0.008749,
      -0.021777,
      -0.013068,
      0.014269,
      -0.002657,
      0.036226,
      0.005932,
      -0.000286,
      0.011542,
      0.020755,
      0.004101,
      -0.020413,
      0.022963,
      -0.002668,
      -0.00128,
      0.008966,
      0.001873,
      -0.013252,
      -0.010164,
      0.001077,
      -0.009777,
      0.018774,
      0.031484,
      0.021249,
      0.022252,
      0.037802,
      -0.006403,
      -0.004624,
      -0.02277,
      -0.022375,
      0.010749,
      0.004193,
      -0.004771,
      -0.002971,
      -0.023735,
      0.003479,
      -0.003316,
      -0.010671,
      0.039522,
      0.03234,
      0.030664,
      0.010402,
      -0.007205,
      0.002254,
      -0.008745,
      -0.004799,
      -0.016658,
      0.010895,
      0.009022,
      0.017308,
      0.017331,
      -0.011795,
      -0.006452,
      -0.034304,
      0.044574,
      0.040096,
      -0.011264,
      -0.0415,
      0.034243,
      0.037444,
      -0.046492,
      0.003548,
      0.017933,
      -0.025977,
      0.02081,
      -0.005913,
      0.006642,
      -0.008125,
      0.013141,
      0.00042,
      0.023702,
      0.000034,
      -0.030656,
      -0.000406,
      0.034381,
      0.002714,
      0.015463,
      0.007953,
      -0.003952,
      0.0336,
      0.000181,
      0.020171,
      0.008587,
      -0.005519,
      -0.005065,
      -0.012793,
      -0.000096,
      -0.000987,
      -0.01219,
      -0.032129,
      0.006873,
      -0.004648,
      0.016157,
      0.017352,
      0.053321,
      0.022163,
      0.034606,
      -0.04701,
      -0.024828,
      0.025837,
      0.011736,
      -0.000118,
      0.015594,
      -0.028587,
      0.014383,
      -0.019097,
      0.009088,
      0.014139,
      -0.025182,
      -0.021867,
      0.025289,
      0.011343,
      0.004029,
      0.00286,
      -0.015913,
      -0.003078,
      0.032035,
      -0.015947,
      -0.001987,
      -0.002163,
      -0.034351,
      -0.018831,
      -0.03795,
      -0.015836,
      0.010518,
      -0.021692,
      -0.003828,
      -0.040349,
      0.028936,
      0.00952,
      -0.00259,
      0.02223,
      -0.02019,
      0.027704,
      -0.022202,
      -0.023299,
      0.005998,
      -0.007293,
      -0.011336,
      -0.002171,
      -0.001697,
      -0.002107,
      -0.014854,
      -0.001138,
      -0.001805,
      0.043808,
      0.009957,
      -0.024283,
      0.004383,
      -0.004038,
      -0.009756,
      -0.047133,
      0.019934,
      0.007301,
      -0.006364,
      0.002586,
      -0.017006,
      0.013835,
      -0.041824,
      -0.02789,
      0.01101,
      0.005335,
      -0.038598,
      -0.012245,
      -0.012256,
      0.03539,
      0.010195,
      -0.020553,
      0.001817,
      0.006341,
      0.020233,
      -0.035869,
      -0.011924,
      -0.006302,
      -0.029796,
      -0.00181,
      -0.009956,
      0.01211,
      0.042777,
      0.009853,
      -0.000728,
      0.027823,
      0.033963,
      0.004311,
      -0.020161,
      -0.02494,
      0.001564,
      0.017747,
      -0.026808,
      -0.015449,
      -0.023326,
      0.010532,
      -0.002479,
      -0.005469,
      0.016425,
      -0.018665,
      0.020601,
      0.017843,
      -0.030193,
      0.005338,
      -0.00528,
      -0.019688,
      -0.025492,
      0.021358,
      0.012811,
      0.015034,
      0.017885,
      -0.01987,
      0.010667,
      0.022595,
      0.111977,
      -0.008015,
      0.012286,
      -0.005506,
      0.019773,
      -0.06637,
      0.00295,
      -0.021955,
      -0.008292,
      0.034124,
      -0.000129,
      -0.016322,
      -0.013242,
      -0.03613,
      -0.040083,
      -0.019655,
      -0.085806,
      -0.038191,
      -0.031604,
      0.000345,
      0.005668,
      0.003318,
      0.005881,
      -0.011147,
      -0.067355,
      0.012336,
      0.024055,
      0.060412,
      0.002648,
      0.024742,
      -0.011982,
      0.009392,
      0.004918,
      0.008589,
      -0.014969,
      -0.045018,
      0.003958,
      -0.001395,
      -0.023045,
      0.020108,
      0.020518,
      0.005466,
      0.004505,
      -0.031104,
      0.010984,
      0.053643,
      0.0141,
      0.006217,
      -0.011511,
      0.001782,
      -0.001224,
      0.001848,
      -0.006292,
      -0.038282,
      -0.005319,
      0.003006,
      -0.008954,
      -0.013042,
      -0.016598,
      -0.029269,
      0.006958,
      0.024013,
      0.057365,
      0.043889,
      -0.013041,
      -0.022408,
      -0.010881,
      -0.041959,
